{"learner":{"attributes":{"best_iteration":"19","best_score":"0.6673626583622824"},"feature_names":[],"feature_types":[],"gradient_booster":{"model":{"cats":{"enc":[],"feature_segments":[],"sorted_idx":[]},"gbtree_model_param":{"num_parallel_tree":"1","num_trees":"70"},"iteration_indptr":[0,1,2,3,4,5,6,7,8,9,10,11,12,13,14,15,16,17,18,19,20,21,22,23,24,25,26,27,28,29,30,31,32,33,34,35,36,37,38,39,40,41,42,43,44,45,46,47,48,49,50,51,52,53,54,55,56,57,58,59,60,61,62,63,64,65,66,67,68,69,70],"tree_info":[0,0,0,0,0,0,0,0,0,0,0,0,0,0,0,0,0,0,0,0,0,0,0,0,0,0,0,0,0,0,0,0,0,0,0,0,0,0,0,0,0,0,0,0,0,0,0,0,0,0,0,0,0,0,0,0,0,0,0,0,0,0,0,0,0,0,0,0,0,0],"trees":[{"base_weights":[1.2051328E-2,-3.0039126E-1,1.4205664E-1,-4.9605632E-1,-1.8228637E-1,2.6351403E-2,1.23462215E-1,-6.234982E-1,-7.9225905E-2,-5.56896E-1,-6.8094976E-2,7.679816E-2,4.0318376E-1,-7.5440913E-1,-3.578939E-1,-5.881854E-1,1.1568402E-2,-7.533287E-1,3.6344912E-2,1.15476534E-1,-2.114237E-1,2.2650242E-1,-5.4708928E-2,2.1255845E-1,5.1221085E-1,-1.0175681E0,-5.233976E-1,-6.3523555E-1,2.4307609E-2,8.733146E-3,-1.6698351E-2,-1.8078128E-1,-9.5997894E-1,7.783199E-3,-2.2276951E-1,6.4640284E-1,-5.9972733E-2,-5.964783E-1,-5.6043144E-2,6.297755E-2,4.6173072E-1,-4.5811608E-1,1.6675904E-2,1.1436829E-2,9.6812196E-2,7.565242E-1,3.8895592E-1,-2.7379626E-2,-5.433304E-1,-3.4826687E-1,-1.3149585E-2,-7.50054E-1,-1.954138E-3,5.718415E-1,-5.971303E-1,-1.2866975E-2,5.40166E-3,-2.5190417E-2,-1.5753899E-3,2.865529E-3,-9.452213E-3,1.9747111E-1,2.3143005E-2,-2.5863442E-1,1.4351252E-1,-8.975227E-1,-2.2283022E-1,9.966409E-2,-2.892552E-1,4.0197438E-1,-1.2031556E-1,2.7921802E-1,6.717082E-1,1.4344619E-1,-6.2611824E-1,3.2713756E-1,-4.3368485E-2,-1.1471607E-1,2.5339898E-1,7.2082737E-3,1.7387861E-2,-1.0358486E-1,6.5878594E-1,-1.8652044E-2,-5.33627E-3,-1.2346106E-2,5.40166E-3,-1.7219149E-2,-5.9835836E-3,8.998077E-4,1.9332137E-2,-3.9525062E-4,-1.6950287E-2,9.683135E-3,-3.0405736E-3,-8.234286E-2,-9.282267E-3,-6.758997E-3,3.2253402E-1,-5.3677754E-3,-1.0430329E0,8.733146E-3,-4.6486148E-1,6.539236E-1,-2.1377574E-1,-6.6290945E-1,-5.538175E-3,6.47606E-1,3.2225244E-2,-6.385384E-2,-9.126734E-1,-3.0405736E-3,3.1713367E-1,1.2928241E-1,7.7357036E-1,1.466659E-2,-3.3794987E-1,-7.6219326E-1,1.1098833E-2,6.539236E-1,1.6220765E-1,-2.9340342E-1,1.5760401E-1,6.8229022E-3,-1.19426055E-2,4.268148E-4,3.6956418E-1,-4.657655E-1,5.2438984E-3,6.8229022E-3,1.4539912E-2,-5.9835836E-3,3.6344912E-2,1.1436829E-2,1.9533979E-3,-9.402428E-3,-2.778044E-2,-1.6950287E-2,-2.5606096E-2,3.865973E-1,1.9332137E-2,-9.68058E-3,-1.1632804E-2,2.865529E-3,-2.0415092E-2,3.6082177E-3,-1.5351138E-1,-1.2339686E-2,9.007059E-1,2.0540087E-2,-2.2287749E-1,7.016666E-2,-3.905884E-1,-2.778044E-2,-3.9525062E-4,1.2267497E-1,4.0527603E-1,-3.0405736E-3,7.783199E-3,-3.9525062E-4,8.240656E-1,-3.9525062E-4,-9.452213E-3,-4.617248E-1,-1.8614724E-2,6.8229022E-3,1.7229224E-2,1.3042011E-2,5.439062E-2,4.700481E-1,-3.6839676E-1,-9.282267E-3,2.156192E-1,3.321281E-3,8.791826E-3,-3.9525062E-4,-1.2339686E-2,-9.523647E-3,2.6219493E-1,8.733146E-3,-9.523647E-3,1.2732948E-2,-1.954138E-3,-2.6681352E-1,2.6219493E-1,5.543937E-3,-9.402428E-3,2.3160951E-2,3.1694102E-1,-4.0018138E-1,5.40166E-3,-1.8412878E-1,3.6675614E-1,-8.975227E-1,-5.303222E-2,3.363953E-1,-9.402428E-3,1.8994652E-1,6.101591E-1,2.2378806E-2,5.1836616E-1,-1.2866975E-2,-2.9687434E-1,-5.3677754E-3,1.14225574E-1,1.466659E-2,8.998077E-4,-5.911942E-1,-5.47061E-2,5.8192086E-1,1.5079187E-1,-5.121219E-4,1.1098833E-2,1.7861543E-2,-1.7126214E-2,-6.425904E-3,1.9332137E-2,-9.523647E-3,1.2552671E-2,-1.1632804E-2,-3.0702273E-3,-1.1848823E-4,-1.07429875E-2,1.3975433E-2,4.9979524E-3,-3.9525062E-4,-2.24361E-2,-1.1180674E-2,8.815092E-3,-5.121219E-4,9.808716E-3,1.6689832E-4,6.176871E-3,2.1549983E-2,6.906505E-3,2.0540087E-2,6.4506806E-3,8.998077E-4,-9.337595E-3,5.053605E-3,-6.425904E-3,-3.0846174E-3,-1.3980498E-2,2.0672444E-3,-1.1384353E-2,3.321281E-3,1.4055667E-2,6.7737726E-3,2.9040054E-6],"categories":[],"categories_nodes":[],"categories_segments":[],"categories_sizes":[],"default_left":[0,0,0,0,0,0,0,0,0,0,0,0,0,0,0,0,0,0,0,0,0,0,0,0,0,0,0,0,0,0,0,0,0,0,0,0,0,0,0,0,0,0,0,0,0,0,0,0,0,0,0,0,0,0,0,0,0,0,0,0,0,0,0,0,0,0,0,0,0,0,0,0,0,0,0,0,0,0,0,0,0,0,0,0,0,0,0,0,0,0,0,0,0,0,0,0,0,0,0,0,0,0,0,0,0,0,0,0,0,0,0,0,0,0,0,0,0,0,0,0,0,0,0,0,0,0,0,0,0,0,0,0,0,0,0,0,0,0,0,0,0,0,0,0,0,0,0,0,0,0,0,0,0,0,0,0,0,0,0,0,0,0,0,0,0,0,0,0,0,0,0,0,0,0,0,0,0,0,0,0,0,0,0,0,0,0,0,0,0,0,0,0,0,0,0,0,0,0,0,0,0,0,0,0,0,0,0,0,0,0,0,0,0,0,0,0,0,0,0,0,0,0,0,0,0,0,0,0,0,0,0,0,0,0,0,0,0,0,0,0,0,0,0,0,0,0,0,0,0],"id":0,"left_children":[1,3,5,7,9,-1,11,13,15,17,19,21,23,25,27,29,-1,31,33,35,37,39,41,43,45,47,49,51,53,-1,-1,55,57,-1,59,61,63,65,67,69,71,73,75,-1,77,79,81,-1,83,85,-1,87,-1,89,91,-1,-1,-1,-1,-1,-1,93,-1,95,97,99,101,103,105,107,109,111,113,115,117,119,121,123,125,-1,-1,127,129,-1,-1,-1,-1,-1,-1,-1,-1,-1,-1,-1,-1,131,-1,-1,133,-1,135,-1,137,139,141,143,145,147,149,151,153,-1,155,157,159,-1,161,163,-1,165,167,169,171,-1,-1,-1,173,175,-1,-1,-1,-1,177,-1,-1,-1,-1,-1,179,181,-1,183,-1,-1,-1,-1,185,-1,187,-1,189,191,193,-1,-1,195,197,-1,-1,-1,199,-1,-1,201,-1,-1,-1,-1,203,205,207,-1,209,-1,-1,-1,-1,-1,211,-1,-1,-1,-1,213,215,-1,-1,-1,217,219,-1,221,223,225,227,229,-1,231,233,-1,235,-1,237,-1,239,-1,-1,241,243,245,247,-1,-1,-1,-1,-1,-1,-1,-1,-1,-1,-1,-1,-1,-1,-1,-1,-1,-1,-1,-1,-1,-1,-1,-1,-1,-1,-1,-1,-1,-1,-1,-1,-1,-1,-1,-1,-1,-1],"loss_changes":[1.903703E1,3.0922136E0,7.070088E0,2.6735497E0,3.7035456E0,0E0,4.235365E0,1.0899076E0,4.7410016E0,2.3922362E0,1.8180516E0,5.5514402E0,8.574424E-1,1.0052023E0,1.5858582E0,2.3641012E0,0E0,1.6357079E0,6.353976E-1,2.8832083E0,2.2780735E0,5.039467E0,4.3440657E0,7.192252E-1,5.7506037E-1,1.0503674E0,1.3568878E-1,4.5885968E-1,2.788948E0,0E0,0E0,1.2764877E0,2.8054237E0,0E0,4.4235346E-1,1.5300205E0,1.0019152E0,1.0377977E0,1.0684783E0,4.9502015E0,1.8772764E0,2.3814921E0,2.4172544E0,0E0,5.3556484E-1,7.2143555E-2,2.8919368E0,0E0,4.2287076E-1,1.640734E0,0E0,9.0185165E-2,0E0,8.5805476E-1,5.410234E-1,0E0,0E0,0E0,0E0,0E0,0E0,6.033926E-1,0E0,4.1216868E-1,1.1806499E0,2.4771643E-1,1.1990321E0,3.25154E0,1.2386509E0,2.5145035E0,2.2668984E0,5.4750633E-1,1.2450027E0,1.8845779E0,3.3016133E0,1.0262039E0,5.518555E0,1.7855531E0,2.3738402E-1,0E0,0E0,1.2328179E0,5.2334785E-2,0E0,0E0,0E0,0E0,0E0,0E0,0E0,0E0,0E0,0E0,0E0,0E0,2.143822E-1,0E0,0E0,4.8092288E-1,0E0,2.062211E-1,0E0,8.2699347E-1,1.8774557E-1,9.099676E-1,1.602916E0,2.3872249E-1,5.907489E0,3.3236506E0,2.1989703E0,1.4110096E0,0E0,4.3692636E-1,4.282985E-1,8.292389E-1,0E0,1.5597868E-1,4.0496254E-1,0E0,1.421156E-1,7.72215E-1,2.9715466E0,2.3011727E0,0E0,0E0,0E0,1.2532055E-2,2.9622132E-1,0E0,0E0,0E0,0E0,8.196162E-1,0E0,0E0,0E0,0E0,0E0,9.123337E-1,7.025197E-1,0E0,6.8936926E-1,0E0,0E0,0E0,0E0,7.863877E-1,0E0,1.7870445E0,0E0,1.0282454E0,2.783783E0,2.446802E0,0E0,0E0,1.4617541E0,7.268617E-1,0E0,0E0,0E0,1.1419516E0,0E0,0E0,4.5765996E-2,0E0,0E0,0E0,0E0,2.9378834E-1,5.054152E-1,3.1172767E0,0E0,1.2538965E0,0E0,0E0,0E0,0E0,0E0,4.1955766E-1,0E0,0E0,0E0,0E0,4.217209E0,2.2880075E0,0E0,0E0,0E0,1.7191846E0,2.753209E-1,0E0,1.2585019E0,4.8336554E-1,1.1125393E0,2.6982777E0,4.6679097E-1,0E0,2.2987923E-1,7.8349876E-1,0E0,7.885759E-1,0E0,3.6983764E-1,0E0,8.1654656E-1,0E0,0E0,1.1289654E0,1.6705328E0,2.9271293E-1,1.3969436E0,0E0,0E0,0E0,0E0,0E0,0E0,0E0,0E0,0E0,0E0,0E0,0E0,0E0,0E0,0E0,0E0,0E0,0E0,0E0,0E0,0E0,0E0,0E0,0E0,0E0,0E0,0E0,0E0,0E0,0E0,0E0,0E0,0E0,0E0,0E0,0E0,0E0,0E0],"parents":[2147483647,0,0,1,1,2,2,3,3,4,4,6,6,7,7,8,8,9,9,10,10,11,11,12,12,13,13,14,14,15,15,17,17,18,18,19,19,20,20,21,21,22,22,23,23,24,24,25,25,26,26,27,27,28,28,31,31,32,32,34,34,35,35,36,36,37,37,38,38,39,39,40,40,41,41,42,42,44,44,45,45,46,46,48,48,49,49,51,51,53,53,54,54,61,61,63,63,64,64,65,65,66,66,67,67,68,68,69,69,70,70,71,71,72,72,73,73,74,74,75,75,76,76,77,77,78,78,81,81,82,82,95,95,98,98,100,100,102,102,103,103,104,104,105,105,106,106,107,107,108,108,109,109,110,110,112,112,113,113,114,114,116,116,117,117,119,119,120,120,121,121,122,122,126,126,127,127,132,132,138,138,139,139,141,141,146,146,148,148,150,150,151,151,152,152,155,155,156,156,160,160,163,163,168,168,169,169,170,170,172,172,178,178,183,183,184,184,188,188,189,189,191,191,192,192,193,193,194,194,195,195,197,197,198,198,200,200,202,202,204,204,207,207,208,208,209,209,210,210],"right_children":[2,4,6,8,10,-1,12,14,16,18,20,22,24,26,28,30,-1,32,34,36,38,40,42,44,46,48,50,52,54,-1,-1,56,58,-1,60,62,64,66,68,70,72,74,76,-1,78,80,82,-1,84,86,-1,88,-1,90,92,-1,-1,-1,-1,-1,-1,94,-1,96,98,100,102,104,106,108,110,112,114,116,118,120,122,124,126,-1,-1,128,130,-1,-1,-1,-1,-1,-1,-1,-1,-1,-1,-1,-1,132,-1,-1,134,-1,136,-1,138,140,142,144,146,148,150,152,154,-1,156,158,160,-1,162,164,-1,166,168,170,172,-1,-1,-1,174,176,-1,-1,-1,-1,178,-1,-1,-1,-1,-1,180,182,-1,184,-1,-1,-1,-1,186,-1,188,-1,190,192,194,-1,-1,196,198,-1,-1,-1,200,-1,-1,202,-1,-1,-1,-1,204,206,208,-1,210,-1,-1,-1,-1,-1,212,-1,-1,-1,-1,214,216,-1,-1,-1,218,220,-1,222,224,226,228,230,-1,232,234,-1,236,-1,238,-1,240,-1,-1,242,244,246,248,-1,-1,-1,-1,-1,-1,-1,-1,-1,-1,-1,-1,-1,-1,-1,-1,-1,-1,-1,-1,-1,-1,-1,-1,-1,-1,-1,-1,-1,-1,-1,-1,-1,-1,-1,-1,-1,-1],"split_conditions":[-1.2048136E-1,-9.948748E-1,3.5627154E-1,1.1914867E0,-6.0241526E-1,2.6351403E-2,1.2525135E0,-4.380545E-1,1.0302455E0,-8.097727E-1,-9.324218E-2,1.2881938E-1,8.7022287E-1,1.0302455E0,-1.6910235E0,-8.097727E-1,1.1568402E-2,-2.588904E-1,-1.9499879E-1,1.2881938E-1,-2.588904E-1,8.7022287E-1,6.9066644E-1,-9.324218E-2,-2.588904E-1,-8.097727E-1,-8.097727E-1,-8.097727E-1,-9.324218E-2,8.733146E-3,-1.6698351E-2,-1.9499879E-1,1.0302455E0,7.783199E-3,4.6201564E-2,8.7022287E-1,-8.097727E-1,3.5627154E-1,6.9066644E-1,-6.0241526E-1,1.3061824E0,1.028998E0,-2.588904E-1,1.1436829E-2,1.1914867E0,-9.324218E-2,1.0302455E0,-2.7379626E-2,3.5627154E-1,-9.324218E-2,-1.3149585E-2,-9.324218E-2,-1.954138E-3,-8.097727E-1,-8.097727E-1,-1.2866975E-2,5.40166E-3,-2.5190417E-2,-1.5753899E-3,2.865529E-3,-9.452213E-3,-8.097727E-1,2.3143005E-2,1.0302455E0,-2.588904E-1,-8.097727E-1,6.049959E-1,4.6201564E-2,1.0302455E0,1.1914867E0,1.1498111E0,-9.948748E-1,-2.588904E-1,1.3061824E0,1.1498111E0,-9.324218E-2,1.0302455E0,-2.588904E-1,-2.588904E-1,7.2082737E-3,1.7387861E-2,1.1914867E0,-1.9499879E-1,-1.8652044E-2,-5.33627E-3,-1.2346106E-2,5.40166E-3,-1.7219149E-2,-5.9835836E-3,8.998077E-4,1.9332137E-2,-3.9525062E-4,-1.6950287E-2,9.683135E-3,-3.0405736E-3,-2.588904E-1,-9.282267E-3,-6.758997E-3,1.0302455E0,-5.3677754E-3,1.1914867E0,8.733146E-3,1.1914867E0,1.3061824E0,6.049959E-1,3.5627154E-1,-8.097727E-1,-2.588904E-1,-2.588904E-1,-9.948748E-1,1.0302455E0,-3.0405736E-3,-9.324218E-2,-9.324218E-2,-9.948748E-1,1.466659E-2,-1.9193913E0,1.1914867E0,1.1098833E-2,1.3061824E0,8.7022287E-1,8.7022287E-1,8.7022287E-1,6.8229022E-3,-1.19426055E-2,4.268148E-4,1.0302455E0,-1.9499879E-1,5.2438984E-3,6.8229022E-3,1.4539912E-2,-5.9835836E-3,-1.3907739E0,1.1436829E-2,1.9533979E-3,-9.402428E-3,-2.778044E-2,-1.6950287E-2,1.3061824E0,1.1914867E0,1.9332137E-2,1.3061824E0,-1.1632804E-2,2.865529E-3,-2.0415092E-2,3.6082177E-3,1.1914867E0,-1.2339686E-2,-9.948748E-1,2.0540087E-2,1.3061824E0,4.6201564E-2,-1.5210417E-1,-2.778044E-2,-3.9525062E-4,1.0302455E0,1.0302455E0,-3.0405736E-3,7.783199E-3,-3.9525062E-4,1.0302455E0,-3.9525062E-4,-9.452213E-3,-1.9499879E-1,-1.8614724E-2,6.8229022E-3,1.7229224E-2,1.3042011E-2,4.6201564E-2,1.3061824E0,1.1914867E0,-9.282267E-3,4.6201564E-2,3.321281E-3,8.791826E-3,-3.9525062E-4,-1.2339686E-2,-9.523647E-3,-1.6910235E0,8.733146E-3,-9.523647E-3,1.2732948E-2,-1.954138E-3,-8.097727E-1,3.5627154E-1,5.543937E-3,-9.402428E-3,2.3160951E-2,4.6201564E-2,-1.9499879E-1,5.40166E-3,1.1914867E0,-2.588904E-1,-2.588904E-1,6.049959E-1,-1.9499879E-1,-9.402428E-3,4.6201564E-2,4.6201564E-2,2.2378806E-2,4.6201564E-2,-1.2866975E-2,-2.588904E-1,-5.3677754E-3,1.1914867E0,1.466659E-2,8.998077E-4,-1.9499879E-1,1.1498111E0,-1.9193913E0,1.3061824E0,-5.121219E-4,1.1098833E-2,1.7861543E-2,-1.7126214E-2,-6.425904E-3,1.9332137E-2,-9.523647E-3,1.2552671E-2,-1.1632804E-2,-3.0702273E-3,-1.1848823E-4,-1.07429875E-2,1.3975433E-2,4.9979524E-3,-3.9525062E-4,-2.24361E-2,-1.1180674E-2,8.815092E-3,-5.121219E-4,9.808716E-3,1.6689832E-4,6.176871E-3,2.1549983E-2,6.906505E-3,2.0540087E-2,6.4506806E-3,8.998077E-4,-9.337595E-3,5.053605E-3,-6.425904E-3,-3.0846174E-3,-1.3980498E-2,2.0672444E-3,-1.1384353E-2,3.321281E-3,1.4055667E-2,6.7737726E-3,2.9040054E-6],"split_indices":[13,5,15,6,3,0,5,13,14,7,6,5,3,14,15,7,0,14,2,5,14,3,5,6,14,7,7,7,6,0,0,2,14,0,0,3,7,15,5,3,2,0,14,0,6,6,14,0,15,6,0,6,0,7,7,0,0,0,0,0,0,7,0,14,14,7,7,0,14,6,13,5,14,2,13,6,14,14,14,0,0,6,2,0,0,0,0,0,0,0,0,0,0,0,0,14,0,0,14,0,6,0,6,2,7,15,7,14,14,5,14,0,6,6,5,0,0,6,0,2,3,3,3,0,0,0,14,2,0,0,0,0,13,0,0,0,0,0,2,6,0,2,0,0,0,0,6,0,5,0,2,0,5,0,0,14,14,0,0,0,14,0,0,2,0,0,0,0,0,2,6,0,0,0,0,0,0,0,15,0,0,0,0,7,15,0,0,0,0,2,0,6,14,14,7,2,0,0,0,0,0,0,14,0,6,0,0,2,13,0,2,0,0,0,0,0,0,0,0,0,0,0,0,0,0,0,0,0,0,0,0,0,0,0,0,0,0,0,0,0,0,0,0,0,0,0,0,0,0],"split_type":[0,0,0,0,0,0,0,0,0,0,0,0,0,0,0,0,0,0,0,0,0,0,0,0,0,0,0,0,0,0,0,0,0,0,0,0,0,0,0,0,0,0,0,0,0,0,0,0,0,0,0,0,0,0,0,0,0,0,0,0,0,0,0,0,0,0,0,0,0,0,0,0,0,0,0,0,0,0,0,0,0,0,0,0,0,0,0,0,0,0,0,0,0,0,0,0,0,0,0,0,0,0,0,0,0,0,0,0,0,0,0,0,0,0,0,0,0,0,0,0,0,0,0,0,0,0,0,0,0,0,0,0,0,0,0,0,0,0,0,0,0,0,0,0,0,0,0,0,0,0,0,0,0,0,0,0,0,0,0,0,0,0,0,0,0,0,0,0,0,0,0,0,0,0,0,0,0,0,0,0,0,0,0,0,0,0,0,0,0,0,0,0,0,0,0,0,0,0,0,0,0,0,0,0,0,0,0,0,0,0,0,0,0,0,0,0,0,0,0,0,0,0,0,0,0,0,0,0,0,0,0,0,0,0,0,0,0,0,0,0,0,0,0,0,0,0,0,0,0],"sum_hessian":[4.6662018E2,1.3672281E2,3.2989737E2,5.025873E1,8.646408E1,4.049282E0,3.2584808E2,3.811089E1,1.2147845E1,1.9293636E1,6.717044E1,2.803532E2,4.5494873E1,2.429569E1,1.3815197E1,6.9075985E0,5.2402472E0,1.4291583E1,5.002054E0,2.9535938E1,3.7634502E1,1.3076799E2,1.4958524E2,1.7626286E1,2.7868587E1,9.765915E0,1.4529776E1,7.6221776E0,6.1930194E0,1.1909653E0,5.7166333E0,4.287475E0,1.0004108E1,1.9055444E0,3.0965097E0,6.6694055E0,2.2866533E1,1.0004108E1,2.7630394E1,7.788913E1,5.2878857E1,2.1675568E1,1.2790967E2,3.3347027E0,1.4291583E1,7.6221776E0,2.0246408E1,4.525668E0,5.2402472E0,7.8603706E0,6.6694055E0,5.9548264E0,1.6673514E0,3.3347027E0,2.8583167E0,1.9055444E0,2.3819306E0,7.1457915E0,2.8583167E0,1.4291583E0,1.6673514E0,4.287475E0,2.3819306E0,1.1433267E1,1.1433267E1,4.763861E0,5.2402472E0,1.6911707E1,1.0718687E1,2.6915815E1,5.0973312E1,2.9535938E1,2.3342918E1,4.763861E0,1.6911707E1,2.0008217E1,1.0790145E2,6.1930194E0,8.098564E0,2.6201236E0,5.002054E0,7.3839846E0,1.2862425E1,1.1909653E0,4.049282E0,5.4784403E0,2.3819306E0,4.049282E0,1.9055444E0,1.9055444E0,1.4291583E0,1.1909653E0,1.6673514E0,2.1437376E0,2.1437376E0,6.9075985E0,4.525668E0,2.8583167E0,8.57495E0,1.4291583E0,3.3347027E0,1.1909653E0,4.049282E0,5.7166333E0,1.1195073E1,4.049282E0,6.6694055E0,1.5720741E1,1.1195073E1,4.859138E1,2.3819306E0,2.1437376E0,2.73922E1,4.049282E0,1.9293636E1,1.9055444E0,2.8583167E0,1.5482549E1,1.4291583E0,5.7166333E0,1.4291583E1,4.7876804E1,6.0024647E1,3.3347027E0,2.8583167E0,3.0965097E0,5.002054E0,3.5728958E0,3.8110888E0,3.3347027E0,9.527722E0,1.9055444E0,5.002054E0,3.3347027E0,5.2402472E0,2.1437376E0,1.1909653E0,1.6673514E0,2.3819306E0,4.287475E0,1.4291583E0,7.8603706E0,3.3347027E0,1.4291583E0,2.6201236E0,2.8583167E0,3.8110888E0,2.3819306E0,1.3338811E1,1.6673514E0,9.527722E0,3.5014378E1,1.35770035E1,1.1909653E0,1.1909653E0,9.289529E0,1.8102673E1,2.1437376E0,1.9055444E0,1.1909653E0,1.8102673E1,1.1909653E0,1.6673514E0,6.9075985E0,8.57495E0,3.3347027E0,2.3819306E0,1.6673514E0,1.2624231E1,3.8110888E0,4.4065716E1,4.525668E0,5.549898E1,2.1437376E0,2.8583167E0,1.1909653E0,2.3819306E0,1.1909653E0,3.8110888E0,1.1909653E0,1.1909653E0,2.6201236E0,1.6673514E0,4.049282E0,3.8110888E0,1.6673514E0,2.1437376E0,8.57495E0,4.763861E0,7.1457915E0,2.3819306E0,1.9055445E1,1.5958935E1,4.763861E0,8.813143E0,7.1457915E0,2.1437376E0,9.765915E0,8.336757E0,7.8603706E0,1.0242301E1,1.9055444E0,5.002054E0,1.4291583E0,1.1195073E1,1.9055444E0,1.9055444E0,2.5248463E1,1.8817251E1,7.1457915E0,4.8353188E1,2.3819306E0,1.4291583E0,1.1909653E0,2.8583167E0,2.3819306E0,1.4291583E0,1.1909653E0,3.5728958E0,3.3347027E0,3.8110888E0,1.3338811E1,5.7166333E0,2.8583167E0,1.3100617E1,1.1909653E0,3.5728958E0,4.287475E0,4.525668E0,2.3819306E0,4.763861E0,4.287475E0,5.4784403E0,1.9055444E0,6.4312124E0,1.6673514E0,8.57495E0,1.9055444E0,3.0965097E0,8.813143E0,2.3819306E0,5.4784403E0,1.9770023E1,1.5006162E1,3.8110888E0,2.1437376E0,5.002054E0,2.0960989E1,2.73922E1],"tree_param":{"num_deleted":"0","num_feature":"16","num_nodes":"249","size_leaf_vector":"1"}},{"base_weights":[9.132675E-3,-2.602311E-1,1.01978086E-1,-3.1962566E-2,-3.6688218E-1,-1.370468E-1,1.5649326E-1,-1.5457077E-1,6.11258E-1,1.3088341E-1,-3.9466903E-1,-2.2718927E-1,5.8831956E-2,1.4362207E-1,1.9935632E-2,-7.007869E-2,-6.759072E-1,1.7029718E-2,5.2830344E-3,-1.5471792E-3,8.757831E-3,-2.9980147E-1,-6.6322094E-1,-8.060605E-2,-6.940929E-1,7.6980237E-3,6.854449E-3,2.2137182E-2,1.3223137E-1,-1.5598896E-1,1.02534415E-2,-6.288881E-3,-1.8516382E-2,-4.1874737E-1,9.072795E-2,-2.5103217E-1,-2.3428338E-2,-1.4121005E-1,-5.655201E-3,-1.6638828E-2,-7.1505737E-3,3.9094902E-4,-2.0739836E-4,-9.408853E-3,1.3863379E-1,-6.3239515E-2,-1.47257885E-2,-1.2489459E-1,-6.511194E-1,6.52865E-3,-2.331177E-1,1.469442E-1,-5.354904E-1,-9.056878E-3,2.722154E-3,5.7549196E-1,-5.039831E-3,6.158765E-1,1.2492052E-1,-1.8740784E-1,2.075634E-1,-2.5714904E-1,1.6902895E-1,2.7289373E-1,-7.601739E-1,1.0370249E-3,-3.5691062E-1,-1.3399035E-2,5.7171583E-1,-4.238435E-4,-6.3402486E-1,3.650546E-3,1.9267324E-2,9.5665157E-1,-3.0781399E-3,6.587155E-2,2.1111442E-1,-1.0509078E-2,2.6781062E-2,1.300895E-2,-7.087717E-3,-1.0169553E-2,1.0936658E-1,-4.327807E-3,1.0267417E-2,8.777773E-3,-3.5219602E-4,-8.8545096E-1,-3.096104E-1,-4.380013E-4,-9.216586E-3,3.370923E-3,1.7797196E-2,-1.8430153E-2,-3.8170463E-3,2.9680617E-3,2.4361527E-2,2.7821398E-1,2.3049116E-2,2.7186936E-1,1.4230463E-1,3.9906297E-3,-2.0737029E-3,2.422015E-3,-5.404629E-3,-1.6057083E-3,2.6137647E-1,-5.862992E-1,-1.220522E0,-5.694168E-1,5.5060526E-3,-1.2772803E-1,4.519672E-1,4.5972258E-1,1.0583767E-3,-1.9237565E-1,3.3509567E-1,-3.2310322E-1,2.0782746E-1,8.283513E-4,8.6734155E-3,-3.7295297E-3,-2.2147708E-2,-1.4912581E-2,-3.3284802E-2,2.785141E-3,-1.8188363E-2,2.6692764E-3,-3.9154002E-3,1.3439702E-2,7.0633716E-3,-9.527611E-3,1.7661683E-2,-1.1085083E-3,2.0987222E-3,-1.9678073E-2,5.180159E-3,2.1882981E-2,4.2678122E-3,5.204436E-3,-1.7162498E-2,1.146368E-2,2.7756756E-3],"categories":[],"categories_nodes":[],"categories_segments":[],"categories_sizes":[],"default_left":[0,0,0,0,0,0,0,0,0,0,0,0,0,0,0,0,0,0,0,0,0,0,0,0,0,0,0,0,0,0,0,0,0,0,0,0,0,0,0,0,0,0,0,0,0,0,0,0,0,0,0,0,0,0,0,0,0,0,0,0,0,0,0,0,0,0,0,0,0,0,0,0,0,0,0,0,0,0,0,0,0,0,0,0,0,0,0,0,0,0,0,0,0,0,0,0,0,0,0,0,0,0,0,0,0,0,0,0,0,0,0,0,0,0,0,0,0,0,0,0,0,0,0,0,0,0,0,0,0,0,0,0,0,0,0,0,0,0,0,0,0,0,0],"id":1,"left_children":[1,3,5,7,9,11,13,15,17,19,21,23,25,27,-1,29,31,-1,-1,-1,-1,33,35,37,39,-1,41,-1,43,45,-1,-1,-1,47,49,51,-1,53,55,-1,-1,-1,-1,-1,57,59,-1,61,63,-1,65,67,69,-1,-1,71,-1,73,75,77,79,81,83,85,87,-1,89,-1,91,-1,93,-1,-1,95,-1,97,99,-1,101,-1,103,-1,105,-1,-1,-1,-1,107,109,-1,-1,-1,-1,-1,-1,-1,-1,111,113,115,117,-1,-1,-1,-1,-1,119,121,123,125,-1,127,129,131,133,135,137,139,141,-1,-1,-1,-1,-1,-1,-1,-1,-1,-1,-1,-1,-1,-1,-1,-1,-1,-1,-1,-1,-1,-1,-1,-1],"loss_changes":[1.1654962E1,2.8967009E0,4.536501E0,3.1810787E0,1.1765375E0,1.1590171E0,2.9134755E0,1.4357717E0,3.14394E-1,3.5679203E-1,1.7699547E0,2.9992683E0,3.5739478E-1,2.9205198E0,0E0,1.5864141E0,1.2262678E-1,0E0,0E0,0E0,0E0,2.7753968E0,3.7587538E0,1.586634E-1,1.9131804E-1,0E0,4.4310973E-3,0E0,1.1355448E0,1.4061552E0,0E0,0E0,0E0,3.015304E0,1.1890261E0,1.432164E0,0E0,1.7355325E0,2.5410314E0,0E0,0E0,0E0,0E0,0E0,1.7244253E0,8.581878E-1,0E0,8.7001747E-1,2.735383E0,0E0,2.5574878E-1,2.3845384E0,3.508005E-1,0E0,0E0,6.3000584E-1,0E0,2.0972555E0,1.3542557E0,1.2616999E0,7.779021E-1,1.442982E0,1.0668927E0,1.709168E-1,1.0073128E0,0E0,1.5754592E-1,0E0,4.059788E-1,0E0,5.882132E-1,0E0,0E0,9.3724775E-1,0E0,1.4573739E0,4.162917E-1,0E0,2.798621E-1,0E0,2.5090694E-1,0E0,2.2133493E-1,0E0,0E0,0E0,0E0,1.0110846E0,1.1409947E0,0E0,0E0,0E0,0E0,0E0,0E0,0E0,0E0,1.9568932E0,1.296402E0,1.7287841E0,1.6873951E0,0E0,0E0,0E0,0E0,0E0,1.3713932E-1,2.0905082E0,2.7641964E-1,1.2857648E0,0E0,1.8341285E-1,1.7732859E-1,2.9859438E0,7.6611894E-1,2.9101179E0,4.4104233E0,2.391871E0,1.1106763E0,0E0,0E0,0E0,0E0,0E0,0E0,0E0,0E0,0E0,0E0,0E0,0E0,0E0,0E0,0E0,0E0,0E0,0E0,0E0,0E0,0E0,0E0,0E0,0E0],"parents":[2147483647,0,0,1,1,2,2,3,3,4,4,5,5,6,6,7,7,8,8,9,9,10,10,11,11,12,12,13,13,15,15,16,16,21,21,22,22,23,23,24,24,26,26,28,28,29,29,33,33,34,34,35,35,37,37,38,38,44,44,45,45,47,47,48,48,50,50,51,51,52,52,55,55,57,57,58,58,59,59,60,60,61,61,62,62,63,63,64,64,66,66,68,68,70,70,73,73,75,75,76,76,78,78,80,80,82,82,87,87,88,88,97,97,98,98,99,99,100,100,106,106,107,107,108,108,109,109,111,111,112,112,113,113,114,114,115,115,116,116,117,117,118,118],"right_children":[2,4,6,8,10,12,14,16,18,20,22,24,26,28,-1,30,32,-1,-1,-1,-1,34,36,38,40,-1,42,-1,44,46,-1,-1,-1,48,50,52,-1,54,56,-1,-1,-1,-1,-1,58,60,-1,62,64,-1,66,68,70,-1,-1,72,-1,74,76,78,80,82,84,86,88,-1,90,-1,92,-1,94,-1,-1,96,-1,98,100,-1,102,-1,104,-1,106,-1,-1,-1,-1,108,110,-1,-1,-1,-1,-1,-1,-1,-1,112,114,116,118,-1,-1,-1,-1,-1,120,122,124,126,-1,128,130,132,134,136,138,140,142,-1,-1,-1,-1,-1,-1,-1,-1,-1,-1,-1,-1,-1,-1,-1,-1,-1,-1,-1,-1,-1,-1,-1,-1],"split_conditions":[5.490633E-1,-9.324218E-2,5.562331E-1,1.9265917E-1,-9.365949E-1,6.049959E-1,1.1498111E0,4.6201564E-2,-1.3907739E0,-1.9694964E0,1.3061824E0,-1.3907739E0,-9.324218E-2,3.5627154E-1,1.9935632E-2,6.049959E-1,1.3061824E0,1.7029718E-2,5.2830344E-3,-1.5471792E-3,8.757831E-3,8.7022287E-1,1.9265917E-1,-9.324218E-2,-9.324218E-2,7.6980237E-3,1.1914867E0,2.2137182E-2,-8.097727E-1,5.562331E-1,1.02534415E-2,-6.288881E-3,-1.8516382E-2,-8.097727E-1,-1.9694964E0,8.7022287E-1,-2.3428338E-2,-8.097727E-1,-8.097727E-1,-1.6638828E-2,-7.1505737E-3,3.9094902E-4,-2.0739836E-4,-9.408853E-3,5.1466495E-1,-8.097727E-1,-1.47257885E-2,4.6201564E-2,-1.6910235E0,6.52865E-3,-1.9499879E-1,-8.097727E-1,-1.3907739E0,-9.056878E-3,2.722154E-3,1.1914867E0,-5.039831E-3,1.3061824E0,1.3061824E0,-1.6910235E0,-1.6910235E0,1.1914867E0,-1.9499879E-1,-6.0241526E-1,6.049959E-1,1.0370249E-3,4.6201564E-2,-1.3399035E-2,1.1914867E0,-4.238435E-4,1.1914867E0,3.650546E-3,1.9267324E-2,-9.324218E-2,-3.0781399E-3,-6.0241526E-1,1.1914867E0,-1.0509078E-2,3.5627154E-1,1.300895E-2,3.5627154E-1,-1.0169553E-2,-1.3907739E0,-4.327807E-3,1.0267417E-2,8.777773E-3,-3.5219602E-4,3.5627154E-1,-1.9694964E0,-4.380013E-4,-9.216586E-3,3.370923E-3,1.7797196E-2,-1.8430153E-2,-3.8170463E-3,2.9680617E-3,2.4361527E-2,4.6201564E-2,-1.9193913E0,4.6201564E-2,8.7022287E-1,3.9906297E-3,-2.0737029E-3,2.422015E-3,-5.404629E-3,-1.6057083E-3,-1.6910235E0,1.1914867E0,4.6201564E-2,-1.9499879E-1,5.5060526E-3,-9.324218E-2,6.049959E-1,-9.324218E-2,1.1914867E0,8.7022287E-1,8.7022287E-1,-6.0241526E-1,4.6201564E-2,8.283513E-4,8.6734155E-3,-3.7295297E-3,-2.2147708E-2,-1.4912581E-2,-3.3284802E-2,2.785141E-3,-1.8188363E-2,2.6692764E-3,-3.9154002E-3,1.3439702E-2,7.0633716E-3,-9.527611E-3,1.7661683E-2,-1.1085083E-3,2.0987222E-3,-1.9678073E-2,5.180159E-3,2.1882981E-2,4.2678122E-3,5.204436E-3,-1.7162498E-2,1.146368E-2,2.7756756E-3],"split_indices":[12,6,9,1,0,7,13,0,13,12,2,13,6,15,0,7,2,0,0,0,0,3,1,6,6,0,6,0,7,9,0,0,0,7,12,3,0,7,7,0,0,0,0,0,13,7,0,0,15,0,2,7,13,0,0,6,0,2,2,15,15,6,2,3,7,0,0,0,6,0,6,0,0,6,0,3,6,0,15,0,15,0,13,0,0,0,0,15,12,0,0,0,0,0,0,0,0,0,0,0,3,0,0,0,0,0,15,6,0,2,0,6,7,6,6,3,3,3,0,0,0,0,0,0,0,0,0,0,0,0,0,0,0,0,0,0,0,0,0,0,0,0,0],"split_type":[0,0,0,0,0,0,0,0,0,0,0,0,0,0,0,0,0,0,0,0,0,0,0,0,0,0,0,0,0,0,0,0,0,0,0,0,0,0,0,0,0,0,0,0,0,0,0,0,0,0,0,0,0,0,0,0,0,0,0,0,0,0,0,0,0,0,0,0,0,0,0,0,0,0,0,0,0,0,0,0,0,0,0,0,0,0,0,0,0,0,0,0,0,0,0,0,0,0,0,0,0,0,0,0,0,0,0,0,0,0,0,0,0,0,0,0,0,0,0,0,0,0,0,0,0,0,0,0,0,0,0,0,0,0,0,0,0,0,0,0,0,0,0],"sum_hessian":[4.6396603E2,1.18466705E2,3.4549933E2,3.8138153E1,8.032855E1,6.3883705E1,2.8161563E2,3.267035E1,5.467803E0,4.0509396E0,7.627762E1,4.3640644E1,2.0243061E1,2.7852026E2,3.095341E0,2.9090178E1,3.5801725E0,2.3726337E0,3.0951695E0,2.8594258E0,1.1915138E0,5.79299E1,1.8347715E1,3.4105843E1,9.534802E0,1.9025694E0,1.8340492E1,2.131144E0,2.7638913E2,2.5990875E1,3.0993028E0,2.386561E0,1.1936115E0,4.434977E1,1.3580129E1,1.0955704E1,7.3920116E0,1.8368969E1,1.5736874E1,5.720117E0,3.814685E0,1.0481546E1,7.8589463E0,2.1434405E0,2.742457E2,2.3365366E1,2.62551E0,2.0263039E1,2.4086733E1,7.8550215E0,5.7251077E0,4.7681546E0,6.1875486E0,8.351306E0,1.0017663E1,4.2869835E0,1.144989E1,6.4336557E0,2.6781204E2,1.6231066E1,7.1342993E0,1.4061163E1,6.201875E0,2.3840911E0,2.170264E1,1.9098393E0,3.8152683E0,1.4337145E0,3.3344402E0,1.190233E0,4.9973154E0,2.8600163E0,1.4269674E0,4.291222E0,2.1424334E0,1.5997914E2,1.0783289E2,5.731707E0,1.0499359E1,1.6662056E0,5.468094E0,8.11155E0,5.949613E0,3.1017227E0,3.1001525E0,1.1921217E0,1.1919694E0,1.6225899E1,5.4767423E0,1.1899334E0,2.625335E0,2.1454222E0,1.1890181E0,2.376412E0,2.6209037E0,1.4318948E0,2.8593276E0,2.5925611E1,1.3405353E2,5.570111E1,5.2131783E1,4.2898245E0,6.209534E0,4.0398865E0,1.4282075E0,2.8569896E0,3.0926235E0,1.0025182E1,6.200717E0,3.810631E0,1.6661112E0,7.8501315E0,1.807548E1,5.472859E0,1.2858067E2,6.4318705E0,4.9269238E1,5.9485016E0,4.618328E1,1.9032435E0,1.1893799E0,6.4409704E0,3.5842113E0,4.2898655E0,1.9108517E0,1.4269089E0,2.3837223E0,1.4236586E0,6.426473E0,3.803587E0,1.42718935E1,1.6653463E0,3.8075128E0,8.3593124E1,4.4987545E1,1.907393E0,4.5244775E0,5.7040296E0,4.356521E1,3.0915072E0,2.8569942E0,6.1798396E0,4.000344E1],"tree_param":{"num_deleted":"0","num_feature":"16","num_nodes":"143","size_leaf_vector":"1"}},{"base_weights":[-5.351298E-3,3.6534548E-1,-1.0367522E-1,-4.459386E-2,4.3865746E-1,-2.7392957E-1,5.877557E-2,1.876785E-2,-3.3268148E-1,3.1612706E-1,6.0869104E-1,-4.5073807E-1,-1.7631193E-1,2.4262077E-1,1.6371032E-2,-5.8939433E-1,1.1334677E-2,9.35585E-3,2.276126E-1,2.1709062E-2,5.120329E-1,-1.5572132E-1,-5.3334194E-1,-4.7077984E-2,-4.2840052E-1,-1.1165293E-2,3.568112E-1,-1.3521175E-1,1.4097035E-1,-8.500193E-1,2.777984E-2,6.128084E-1,1.4733705E-1,2.0420458E-2,4.46071E-1,4.5794457E-2,-2.7653465E-2,-6.198872E-1,2.631535E-1,-2.1169992E-1,5.099057E-1,6.1308138E-2,-6.2743574E-1,7.008172E-1,1.8316098E-1,4.5812312E-1,-2.376867E-1,-1.1835926E-2,2.779323E-1,-2.2154426E-2,-2.914874E-3,1.3041518E-2,-1.3350014E-2,1.77545E-2,6.641569E-3,2.536189E-1,-2.0008601E-1,2.394939E-1,1.1518531E-2,1.0611366E-2,-2.0209678E-1,-6.840722E-1,5.48074E-2,1.1094332E-2,2.6280573E-2,1.0881745E-1,-3.3688468E-1,7.1983447E-4,1.1249538E-2,4.870378E-1,-2.663718E-1,-8.653133E-1,-3.5117397E-1,1.8627381E-1,1.748899E-2,9.71568E-3,7.410087E-2,2.1201849E-2,2.096711E-1,-2.8898776E-1,2.5764152E-1,-3.0444038E-1,1.1980215E-1,7.1508507E-3,-1.5581019E-3,1.9777704E-3,6.558696E-3,-1.5665151E-2,1.8584189E-1,-6.832117E-3,4.4402197E-1,3.2013094E-1,-7.320036E-1,-4.950094E-1,-1.9803943E-2,-2.1582954E-2,1.712045E-2,-1.862117E-3,2.9318428E-3,4.5977217E-1,-2.1913874E-1,-5.498898E-1,-1.6692597E-1,8.036542E-2,1.600361E-2,3.5931997E-3,-1.1372217E-2,-5.2938033E-3,-9.105087E-1,5.4797875E-3,-4.9294114E-1,-2.4630286E-4,5.595284E-3,-8.6671335E-4,1.0912576E-2,6.785751E-3,-5.46097E-3,-6.6352266E-1,-1.8699144E-1,-9.5305145E-3,6.2907517E-1,-7.341305E-1,-1.2796377E-2,3.905757E-1,2.274012E-2,1.292514E-2,-4.106495E-3,1.37543855E-2,9.678606E-4,1.0017776E-3,8.814155E-3,-3.260133E-4,-1.8713782E-2,-6.773253E-1,-1.9568492E-1,1.4286889E-1,1.799928E-2,1.2562974E-2,-1.2037632E-2,-9.575387E-1,-3.8780642E-1,-3.242425E-1,7.2403714E-2,-5.358534E-3,8.608419E-3,-2.7337672E-2,-6.508564E-1,-7.3862636E-1,9.454514E-3,3.8834172E-3,-8.704292E-2,-3.2836494E-1,-1.4732758E-2,-2.9722616E-1,3.8923138E-1,2.9733272E-3,1.6013902E-2,-2.890189E-3,-2.1803213E-2,-9.653278E-3,1.2298526E-1,1.3409437E-1,1.2811073E-2,1.2422897E-1,-2.3635069E-1,-9.283622E-1,-1.10011E-2,-4.4871432E-1,1.9782403E-1,-9.575094E-3,5.6109923E-1,-2.6097916E-2,-5.628864E-3,-9.5415494E-4,-1.3575771E-2,-5.516529E-1,2.0476801E-2,9.996227E-3,-4.5902154E-1,-1.5493064E-1,-9.181821E-1,-3.67173E-1,-1.9850487E-2,1.0946488E-3,-6.9694575E-3,-1.8332667E-4,-9.358174E-3,-4.9217567E-2,-7.656885E-3,1.8269397E-2,-6.324193E-2,-5.405833E-3,5.127154E-3,3.2774946E-3,1.1184035E-3,-3.8688919E-3,1.9586603E-1,-6.557086E-3,-1.6651448E-3,-5.588172E-3,-2.734111E-2,1.2904348E-2,-1.7489182E-2,8.696091E-3,4.5794348E-4,2.0377407E-2,-2.1471144E-3,8.9230975E-3,-7.1953377E-3,-3.4188908E-3,-1.3942214E-2,-1.1455261E-2,-4.7450679E-4,5.555743E-3,-9.460853E-3,-2.7311256E-2,-3.7530365E-3,5.6262403E-3,-1.3989228E-2,-1.0839021E-2,8.298112E-3,-1.3302314E-2,7.1865525E-3,4.955518E-3,2.367863E-3],"categories":[],"categories_nodes":[],"categories_segments":[],"categories_sizes":[],"default_left":[0,0,0,0,0,0,0,0,0,0,0,0,0,0,0,0,0,0,0,0,0,0,0,0,0,0,0,0,0,0,0,0,0,0,0,0,0,0,0,0,0,0,0,0,0,0,0,0,0,0,0,0,0,0,0,0,0,0,0,0,0,0,0,0,0,0,0,0,0,0,0,0,0,0,0,0,0,0,0,0,0,0,0,0,0,0,0,0,0,0,0,0,0,0,0,0,0,0,0,0,0,0,0,0,0,0,0,0,0,0,0,0,0,0,0,0,0,0,0,0,0,0,0,0,0,0,0,0,0,0,0,0,0,0,0,0,0,0,0,0,0,0,0,0,0,0,0,0,0,0,0,0,0,0,0,0,0,0,0,0,0,0,0,0,0,0,0,0,0,0,0,0,0,0,0,0,0,0,0,0,0,0,0,0,0,0,0,0,0,0,0,0,0,0,0,0,0,0,0,0,0,0,0,0,0,0,0,0,0,0,0,0,0,0,0,0,0,0,0,0,0,0,0,0,0],"id":2,"left_children":[1,3,5,7,9,11,13,-1,15,17,19,21,23,25,27,29,-1,-1,31,-1,33,35,37,39,41,-1,43,45,47,49,51,53,55,-1,57,59,-1,61,63,65,67,69,71,73,75,77,79,81,83,-1,-1,-1,-1,-1,-1,85,87,89,-1,-1,91,93,95,-1,97,99,101,-1,-1,103,105,107,109,111,-1,-1,113,-1,115,117,119,121,123,-1,-1,-1,-1,-1,125,-1,127,129,131,133,-1,-1,-1,-1,-1,135,137,139,141,143,-1,-1,-1,-1,145,-1,147,-1,-1,149,-1,-1,-1,151,153,-1,155,157,159,161,163,-1,-1,-1,-1,-1,-1,-1,-1,165,167,169,-1,-1,-1,171,173,175,177,-1,-1,-1,179,181,-1,-1,183,185,-1,187,189,-1,-1,-1,-1,-1,191,193,-1,195,197,199,-1,201,203,-1,205,-1,-1,207,-1,209,-1,-1,211,213,215,217,-1,-1,-1,-1,-1,219,-1,-1,221,-1,-1,-1,-1,-1,223,-1,-1,-1,-1,-1,-1,-1,-1,-1,-1,-1,-1,-1,-1,-1,-1,-1,-1,-1,-1,-1,-1,-1,-1,-1,-1,-1,-1],"loss_changes":[1.703598E1,2.9644232E0,1.0232222E1,4.778875E0,1.5412903E0,3.03644E0,1.476012E0,0E0,3.3209145E0,5.707073E-1,1.0004787E0,1.4662514E0,3.8226588E0,3.4465716E0,2.9528625E0,1.7212455E0,0E0,0E0,9.548991E-1,0E0,5.508075E-1,3.851044E0,3.558487E0,7.361056E0,3.9229174E0,0E0,1.7645488E0,4.4008393E0,1.7978061E0,1.1910691E0,2.2157495E0,1.3067031E-1,1.1322055E0,0E0,6.2145567E-1,1.8047903E0,0E0,1.9743881E0,3.6730704E-1,2.514862E0,4.3666744E-1,1.8634558E0,1.5641308E0,7.551775E-1,7.03679E-1,1.3836417E0,1.6207438E0,1.6344714E0,1.3099172E0,0E0,0E0,0E0,0E0,0E0,0E0,2.3053241E-1,1.8154901E0,1.6537693E0,0E0,0E0,3.0212746E0,1.8779011E0,5.2948895E0,0E0,7.254801E-2,2.1844268E0,1.5250044E0,0E0,0E0,6.6905487E-1,1.1360084E0,1.5506744E-1,1.449814E0,7.517335E-2,0E0,0E0,6.245475E-1,0E0,6.4619124E-1,2.0003662E0,2.0012665E0,1.6391994E0,7.6201034E-1,0E0,0E0,0E0,0E0,0E0,1.0823997E0,0E0,9.0993166E-1,1.6573387E-1,7.5780416E-1,1.3569112E0,0E0,0E0,0E0,0E0,0E0,1.1363792E0,3.6325502E0,9.094405E-1,1.0127814E0,5.563002E-1,0E0,0E0,0E0,0E0,6.697674E-1,0E0,3.3028495E0,0E0,0E0,2.8970698E-1,0E0,0E0,0E0,4.018545E-2,2.9805048E0,0E0,2.5810874E-1,9.552965E-1,6.242578E-1,4.06381E-1,6.250368E-1,0E0,0E0,0E0,0E0,0E0,0E0,0E0,0E0,1.8300056E-2,1.2574867E0,1.9483675E0,0E0,0E0,0E0,7.6798487E-1,1.7498066E0,5.4812484E0,2.7821884E0,0E0,0E0,0E0,1.2228055E0,6.083813E-1,0E0,0E0,4.6190453E-1,1.6789618E-1,0E0,7.9708815E-1,1.8784405E0,0E0,0E0,0E0,0E0,0E0,4.7139877E-1,2.6032478E-3,0E0,4.2323825E-1,6.685057E-2,7.8974414E-1,0E0,4.0339656E0,2.0924254E-1,0E0,1.4321476E0,0E0,0E0,1.3921016E0,0E0,6.767154E-1,0E0,0E0,2.6026428E-1,7.934232E-1,1.863956E0,1.4412038E0,0E0,0E0,0E0,0E0,0E0,2.742411E0,0E0,0E0,1.5246533E0,0E0,0E0,0E0,0E0,0E0,2.8230667E-2,0E0,0E0,0E0,0E0,0E0,0E0,0E0,0E0,0E0,0E0,0E0,0E0,0E0,0E0,0E0,0E0,0E0,0E0,0E0,0E0,0E0,0E0,0E0,0E0,0E0,0E0,0E0,0E0],"parents":[2147483647,0,0,1,1,2,2,3,3,4,4,5,5,6,6,8,8,9,9,10,10,11,11,12,12,13,13,14,14,15,15,18,18,20,20,21,21,22,22,23,23,24,24,26,26,27,27,28,28,29,29,30,30,31,31,32,32,34,34,35,35,37,37,38,38,39,39,40,40,41,41,42,42,43,43,44,44,45,45,46,46,47,47,48,48,55,55,56,56,57,57,60,60,61,61,62,62,64,64,65,65,66,66,69,69,70,70,71,71,72,72,73,73,76,76,78,78,79,79,80,80,81,81,82,82,88,88,90,90,91,91,92,92,93,93,99,99,100,100,101,101,102,102,103,103,108,108,110,110,113,113,117,117,118,118,120,120,121,121,122,122,123,123,124,124,133,133,134,134,135,135,139,139,140,140,141,141,142,142,146,146,147,147,150,150,151,151,153,153,154,154,160,160,161,161,163,163,164,164,165,165,167,167,168,168,170,170,173,173,175,175,178,178,179,179,180,180,181,181,187,187,190,190,196,196],"right_children":[2,4,6,8,10,12,14,-1,16,18,20,22,24,26,28,30,-1,-1,32,-1,34,36,38,40,42,-1,44,46,48,50,52,54,56,-1,58,60,-1,62,64,66,68,70,72,74,76,78,80,82,84,-1,-1,-1,-1,-1,-1,86,88,90,-1,-1,92,94,96,-1,98,100,102,-1,-1,104,106,108,110,112,-1,-1,114,-1,116,118,120,122,124,-1,-1,-1,-1,-1,126,-1,128,130,132,134,-1,-1,-1,-1,-1,136,138,140,142,144,-1,-1,-1,-1,146,-1,148,-1,-1,150,-1,-1,-1,152,154,-1,156,158,160,162,164,-1,-1,-1,-1,-1,-1,-1,-1,166,168,170,-1,-1,-1,172,174,176,178,-1,-1,-1,180,182,-1,-1,184,186,-1,188,190,-1,-1,-1,-1,-1,192,194,-1,196,198,200,-1,202,204,-1,206,-1,-1,208,-1,210,-1,-1,212,214,216,218,-1,-1,-1,-1,-1,220,-1,-1,222,-1,-1,-1,-1,-1,224,-1,-1,-1,-1,-1,-1,-1,-1,-1,-1,-1,-1,-1,-1,-1,-1,-1,-1,-1,-1,-1,-1,-1,-1,-1,-1,-1,-1],"split_conditions":[-1.0629243E0,5.490633E-1,6.9066644E-1,-9.324218E-2,1.1914867E0,5.490633E-1,-2.588904E-1,1.876785E-2,1.3837324E0,-2.588904E-1,-2.588904E-1,-2.588904E-1,-9.948748E-1,3.5627154E-1,1.0302455E0,1.0302455E0,1.1334677E-2,9.35585E-3,-1.0510914E-1,2.1709062E-2,6.049959E-1,1.2881938E-1,1.9265917E-1,9.11233E-1,-2.588904E-1,-1.1165293E-2,-9.324218E-2,3.5627154E-1,1.9265917E-1,1.1914867E0,1.1914867E0,-9.324218E-2,1.2881938E-1,2.0420458E-2,1.0302455E0,-9.324218E-2,-2.7653465E-2,6.049959E-1,1.3837324E0,-9.9841404E-1,-2.588904E-1,6.049959E-1,1.2881938E-1,6.049959E-1,-9.9841404E-1,1.2525135E0,1.3837324E0,-9.324218E-2,1.3837324E0,-2.2154426E-2,-2.914874E-3,1.3041518E-2,-1.3350014E-2,1.77545E-2,6.641569E-3,-9.324218E-2,1.0302455E0,-9.9841404E-1,1.1518531E-2,1.0611366E-2,-9.9841404E-1,3.5627154E-1,1.0302455E0,1.1094332E-2,1.0302455E0,1.1914867E0,1.0302455E0,7.1983447E-4,1.1249538E-2,-9.9841404E-1,7.881958E-1,-8.097727E-1,-9.324218E-2,-8.097727E-1,1.748899E-2,9.71568E-3,1.3837324E0,2.1201849E-2,-9.324218E-2,5.490633E-1,-9.324218E-2,-8.097727E-1,6.049959E-1,7.1508507E-3,-1.5581019E-3,1.9777704E-3,6.558696E-3,-1.5665151E-2,-9.324218E-2,-6.832117E-3,1.2881938E-1,-1.6910235E0,-1.6910235E0,-8.097727E-1,-1.9803943E-2,-2.1582954E-2,1.712045E-2,-1.862117E-3,2.9318428E-3,1.0302455E0,-2.588904E-1,-8.097727E-1,6.049959E-1,-9.324218E-2,1.600361E-2,3.5931997E-3,-1.1372217E-2,-5.2938033E-3,-9.324218E-2,5.4797875E-3,1.3837324E0,-2.4630286E-4,5.595284E-3,9.11233E-1,1.0912576E-2,6.785751E-3,-5.46097E-3,-9.324218E-2,1.2525135E0,-9.5305145E-3,1.1914867E0,5.490633E-1,-9.9841404E-1,5.490633E-1,-9.9841404E-1,1.292514E-2,-4.106495E-3,1.37543855E-2,9.678606E-4,1.0017776E-3,8.814155E-3,-3.260133E-4,-1.8713782E-2,-9.9841404E-1,-9.948748E-1,-9.324218E-2,1.799928E-2,1.2562974E-2,-1.2037632E-2,-2.588904E-1,-2.588904E-1,1.1914867E0,1.1914867E0,-5.358534E-3,8.608419E-3,-2.7337672E-2,9.11233E-1,1.0302455E0,9.454514E-3,3.8834172E-3,1.1914867E0,-9.9841404E-1,-1.4732758E-2,7.881958E-1,-9.324218E-2,2.9733272E-3,1.6013902E-2,-2.890189E-3,-2.1803213E-2,-9.653278E-3,5.490633E-1,-8.097727E-1,1.2811073E-2,-1.9694964E0,1.1914867E0,-1.6910235E0,-1.10011E-2,-9.324218E-2,-1.6910235E0,-9.575094E-3,-2.588904E-1,-2.6097916E-2,-5.628864E-3,6.049959E-1,-1.3575771E-2,-8.097727E-1,2.0476801E-2,9.996227E-3,1.9265917E-1,1.0302455E0,1.9265917E-1,7.881958E-1,-1.9850487E-2,1.0946488E-3,-6.9694575E-3,-1.8332667E-4,-9.358174E-3,1.1914867E0,-7.656885E-3,1.8269397E-2,6.049959E-1,-5.405833E-3,5.127154E-3,3.2774946E-3,1.1184035E-3,-3.8688919E-3,1.1914867E0,-6.557086E-3,-1.6651448E-3,-5.588172E-3,-2.734111E-2,1.2904348E-2,-1.7489182E-2,8.696091E-3,4.5794348E-4,2.0377407E-2,-2.1471144E-3,8.9230975E-3,-7.1953377E-3,-3.4188908E-3,-1.3942214E-2,-1.1455261E-2,-4.7450679E-4,5.555743E-3,-9.460853E-3,-2.7311256E-2,-3.7530365E-3,5.6262403E-3,-1.3989228E-2,-1.0839021E-2,8.298112E-3,-1.3302314E-2,7.1865525E-3,4.955518E-3,2.367863E-3],"split_indices":[4,12,5,6,6,12,14,0,1,14,14,14,5,15,14,14,0,0,1,0,7,5,1,4,14,0,6,15,1,6,6,6,5,0,14,6,0,7,1,1,14,7,5,7,1,5,1,6,1,0,0,0,0,0,0,6,14,1,0,0,1,15,14,0,14,6,14,0,0,1,1,7,6,7,0,0,1,0,6,12,6,7,7,0,0,0,0,0,6,0,5,15,15,7,0,0,0,0,0,14,14,7,7,6,0,0,0,0,6,0,1,0,0,4,0,0,0,6,5,0,6,12,1,12,1,0,0,0,0,0,0,0,0,1,5,6,0,0,0,14,14,6,6,0,0,0,4,14,0,0,6,1,0,1,6,0,0,0,0,0,12,7,0,12,6,15,0,6,15,0,14,0,0,7,0,7,0,0,1,14,1,1,0,0,0,0,0,6,0,0,7,0,0,0,0,0,6,0,0,0,0,0,0,0,0,0,0,0,0,0,0,0,0,0,0,0,0,0,0,0,0,0,0,0,0],"split_type":[0,0,0,0,0,0,0,0,0,0,0,0,0,0,0,0,0,0,0,0,0,0,0,0,0,0,0,0,0,0,0,0,0,0,0,0,0,0,0,0,0,0,0,0,0,0,0,0,0,0,0,0,0,0,0,0,0,0,0,0,0,0,0,0,0,0,0,0,0,0,0,0,0,0,0,0,0,0,0,0,0,0,0,0,0,0,0,0,0,0,0,0,0,0,0,0,0,0,0,0,0,0,0,0,0,0,0,0,0,0,0,0,0,0,0,0,0,0,0,0,0,0,0,0,0,0,0,0,0,0,0,0,0,0,0,0,0,0,0,0,0,0,0,0,0,0,0,0,0,0,0,0,0,0,0,0,0,0,0,0,0,0,0,0,0,0,0,0,0,0,0,0,0,0,0,0,0,0,0,0,0,0,0,0,0,0,0,0,0,0,0,0,0,0,0,0,0,0,0,0,0,0,0,0,0,0,0,0,0,0,0,0,0,0,0,0,0,0,0,0,0,0,0,0,0],"sum_hessian":[4.653612E2,9.698744E1,3.6837378E2,1.4772975E1,8.221447E1,1.7953174E2,1.8884204E2,2.836661E0,1.1936314E1,4.9443478E1,3.2770992E1,6.2575462E1,1.16956276E2,3.4508514E1,1.5433351E2,9.554066E0,2.382248E0,1.6642458E1,3.2801018E1,3.7996352E0,2.8971355E1,1.4319402E1,4.825606E1,7.8103195E1,3.8853077E1,3.8209603E0,3.0687555E1,6.9589005E1,8.4744514E1,6.4521337E0,3.1019325E0,4.5128164E0,2.8288202E1,1.6626514E0,2.7308704E1,1.3126216E1,1.1931863E0,4.372657E1,4.529489E0,6.0763786E1,1.733941E1,1.1427845E1,2.7425234E1,9.275913E0,2.1411642E1,9.737547E0,5.9851456E1,4.0487186E1,4.4257328E1,4.304294E0,2.1478395E0,1.6671392E0,1.4347932E0,1.1876034E0,3.325213E0,2.1868351E1,6.4198513E0,1.1638395E1,1.567031E1,4.0553274E0,9.0708885E0,3.991544E1,3.811131E0,1.4288762E0,3.1006129E0,1.7103504E1,4.3660286E1,1.8996096E0,1.5439801E1,4.758789E0,6.669056E0,1.3590658E1,1.3834575E1,2.8633745E0,6.412539E0,4.757135E0,1.6654509E1,1.8904426E0,7.8471045E0,5.4611885E1,5.2395716E0,1.2155436E1,2.833175E1,3.6162113E1,8.095215E0,7.8515596E0,1.4016791E1,2.1466012E0,4.27325E0,2.8554242E0,8.78297E0,4.767928E0,4.3029604E0,2.6293558E1,1.36218815E1,1.4342943E0,2.3768368E0,1.6697899E0,1.4308228E0,8.067898E0,9.035605E0,1.8384281E1,2.5276003E1,2.616906E0,2.1418834E0,2.8575592E0,3.8114967E0,1.4309295E0,1.2159729E1,2.384918E0,1.1449657E1,1.1944467E0,1.6689277E0,1.5231098E1,1.4234097E0,6.4203033E0,1.4268011E0,1.0510717E1,4.410117E1,1.665213E0,3.5743587E0,4.3011603E0,7.8542757E0,6.6780477E0,2.1653702E1,1.6633312E0,2.6099188E0,4.978221E0,3.80475E0,1.9086823E0,2.8592458E0,1.1925715E0,3.110389E0,1.5555806E1,1.0737753E1,5.460983E0,2.606915E0,2.6120558E0,6.4235497E0,3.83396E0,1.4550322E1,1.503704E1,1.0238962E1,1.4293615E0,1.1875443E0,2.8631175E0,9.296612E0,9.314877E0,2.1347804E0,4.2834444E0,1.0947654E1,2.8656657E0,7.645052E0,3.7425617E1,6.6755514E0,1.4320189E0,2.14234E0,2.1486597E0,2.1525006E0,1.1881204E0,6.666155E0,4.054496E0,2.6235516E0,1.593306E1,5.720643E0,3.1157222E0,1.2440084E1,6.4500375E0,4.2877154E0,2.1382084E0,3.3227744E0,1.918333E0,1.915627E0,6.676881E0,7.8734407E0,1.3372069E1,1.6649705E0,5.707832E0,4.5311303E0,3.8093338E0,5.487278E0,4.7750754E0,4.539801E0,7.6108675E0,3.3367865E0,1.1958693E0,1.6697962E0,1.0008629E1,2.7416988E1,2.6205401E0,4.0550113E0,1.4282029E0,5.237952E0,2.1421647E0,1.9123312E0,2.6189625E0,1.3314096E1,2.8660693E0,2.8545737E0,1.916935E0,1.1987872E0,1.6625888E0,4.7874484E0,1.1899735E0,3.0977418E0,1.6610428E0,1.6617316E0,2.8643076E0,3.8125734E0,4.298023E0,9.074046E0,3.3420599E0,1.1890707E0,1.667648E0,2.1416857E0,2.8640447E0,2.623233E0,1.6697829E0,3.1052926E0,4.7733464E0,5.235282E0,1.4358805E0,2.6191308E0,6.656053E0,6.658044E0],"tree_param":{"num_deleted":"0","num_feature":"16","num_nodes":"225","size_leaf_vector":"1"}},{"base_weights":[3.906585E-2,-2.2172733E-1,1.572471E-1,-3.7228382E-1,-4.1300945E-2,3.4080535E-1,8.7439544E-2,-7.758052E-1,-3.1555447E-1,-1.4177853E-1,4.499663E-1,5.856776E-1,2.5508335E-1,-9.365857E-2,1.9272067E-1,-1.9636195E-2,-6.6897986E-3,-2.447598E-1,-3.9358872E-1,4.6589494E-1,-2.548155E-1,2.206504E-2,1.8297349E-1,1.6786866E-2,3.962057E-1,-1.4182945E-1,3.1917143E-1,2.0339252E-1,-5.3118765E-1,-1.2047056E-1,2.5292352E-1,-1.7668167E-1,-1.6393308E-2,6.590983E-2,-5.60682E-1,2.2963813E-2,5.3422436E-2,-4.002273E-1,-1.8603696E-1,2.0249069E-2,-1.276373E-1,1.8813312E-2,2.6344025E-1,1.6772605E-2,-8.321432E-1,1.9096366E-1,4.7640902E-1,2.4892424E-1,-1.864779E-2,7.539402E-2,-6.246548E-1,2.9361147E-1,-6.803123E-1,-3.7424847E-2,2.9905674E-1,-2.533712E-1,8.238027E-3,2.8704643E-1,-1.3586906E-2,-7.528511E-1,1.5188763E-1,-9.35098E-3,2.5107744E-1,-4.9185345E-1,-2.2298795E-1,-3.107428E-1,5.7347436E-2,2.706067E-4,-6.208516E-3,2.8961387E-3,3.3141205E-1,-3.3012015E-1,-2.5899496E-2,4.534967E-2,3.3154264E-1,1.7156242E-1,1.0618159E-2,3.7002794E-2,4.0258306E-1,4.3737024E-1,-9.532284E-3,5.0579933E-3,-7.085687E-1,-4.636883E-1,4.987167E-1,3.1828326E-3,-3.2372203E-2,-9.272581E-3,2.792418E-1,5.787802E-1,2.5080192E-1,-3.4180698E-1,1.5845247E-1,7.979285E-3,2.0545623E-3,-5.3516495E-1,-2.4451561E-2,1.0203859E-2,-9.063448E-3,-5.275349E-3,4.9619424E-1,-1.2241659E-2,-4.187427E-3,1.1001216E-2,-1.0681482E-2,-1.2619304E-2,-2.5105548E-1,2.1499575E-3,-1.637898E-3,1.01995645E-2,-6.5485394E-4,-1.3311642E-4,-9.014308E-3,5.620551E-3,-1.662942E-1,9.946371E-2,9.014993E-3,4.8692073E-3,5.769235E-4,3.0955294E-1,-4.467903E-1,-5.3374427E-3,4.4699147E-1,1.1034001E-2,2.8612071E-3,-2.770641E-1,-8.584927E-1,2.854909E-3,-1.847222E-2,-1.4807658E-3,1.3746437E-2,-9.48096E-3,4.2267105E-1,1.69251E-2,4.5960513E-1,4.503437E-1,1.4343704E-1,-4.2786312E-1,-1.3069074E-1,7.806404E-3,-4.6752254E-4,-1.379497E-2,4.4944725E-4,2.5465088E-3,1.2902076E-2,-1.3706505E-1,-5.9006927E-3,5.3574922E-3,-2.8800735E-1,-1.2955815E-1,6.9299275E-3,4.5867944E-1,-6.6114496E-3,-1.7344683E-3,-1.0467789E-2,2.386285E-1,6.37885E-1,-1.5839426E-2,1.9886546E-1,-1.1174141E0,-6.0042584E-1,1.2254402E-2,-3.2413076E-3,-1.2806603E-2,7.201606E-1,3.1732738E-1,5.9436995E-1,1.0277889E-1,1.8418995E-1,-1.17310705E-2,-8.900976E-2,-4.8450305E-4,-9.338219E-3,4.877024E-4,-9.631925E-3,-7.6543503E-3,-1.6736548E-3,3.2161889E-3,-9.747047E-3,1.8943194E-2,2.1433717E-1,6.689253E-1,-1.2450871E-1,7.658203E-1,2.3682956E-1,-4.7263125E-4,7.789629E-3,-2.6845593E-2,-1.1452945E-2,3.1223616E-3,-7.1534145E-1,8.294222E-3,1.889452E-2,4.2999718E-1,-3.1667432E-1,1.5374814E-2,2.5183022E-1,-1.4632016E-4,3.8052958E-3,6.109751E-3,2.1136897E-3,-6.193426E-3,2.563566E-3,-3.6945844E-3,3.4926161E-3,-9.587635E-3,7.4015013E-3,7.557136E-4,1.8008212E-2,-1.1928533E-2,3.997345E-3,5.2808295E-3,1.6678613E-2,1.0748165E-2,-9.931922E-4,-2.1616459E-2,-1.0884563E-2,5.481749E-3,1.5911438E-2,-3.5836245E-4,-9.415901E-3,-4.6811407E-4,6.427768E-3],"categories":[],"categories_nodes":[],"categories_segments":[],"categories_sizes":[],"default_left":[0,0,0,0,0,0,0,0,0,0,0,0,0,0,0,0,0,0,0,0,0,0,0,0,0,0,0,0,0,0,0,0,0,0,0,0,0,0,0,0,0,0,0,0,0,0,0,0,0,0,0,0,0,0,0,0,0,0,0,0,0,0,0,0,0,0,0,0,0,0,0,0,0,0,0,0,0,0,0,0,0,0,0,0,0,0,0,0,0,0,0,0,0,0,0,0,0,0,0,0,0,0,0,0,0,0,0,0,0,0,0,0,0,0,0,0,0,0,0,0,0,0,0,0,0,0,0,0,0,0,0,0,0,0,0,0,0,0,0,0,0,0,0,0,0,0,0,0,0,0,0,0,0,0,0,0,0,0,0,0,0,0,0,0,0,0,0,0,0,0,0,0,0,0,0,0,0,0,0,0,0,0,0,0,0,0,0,0,0,0,0,0,0,0,0,0,0,0,0,0,0,0,0,0,0,0,0,0,0,0,0,0,0,0,0,0,0,0,0,0,0,0,0],"id":3,"left_children":[1,3,5,7,9,11,13,15,17,19,21,23,25,27,29,-1,-1,31,33,35,37,-1,39,-1,41,43,45,47,49,51,53,55,-1,57,59,-1,61,63,65,-1,67,-1,69,-1,71,73,75,77,-1,79,81,83,85,87,89,91,-1,93,-1,95,97,-1,99,101,103,105,107,-1,-1,-1,109,111,-1,113,115,117,-1,119,121,123,-1,-1,125,127,129,-1,-1,-1,131,133,135,137,139,-1,-1,141,-1,-1,-1,-1,143,-1,-1,-1,-1,-1,145,-1,-1,-1,-1,-1,-1,-1,147,149,-1,-1,-1,151,153,-1,155,-1,-1,157,159,-1,-1,-1,-1,-1,161,-1,163,165,167,169,171,-1,-1,-1,-1,-1,-1,173,-1,-1,175,177,-1,179,-1,-1,-1,181,183,-1,185,187,189,-1,-1,-1,191,193,195,197,199,-1,201,-1,-1,203,-1,-1,-1,-1,-1,-1,205,207,209,211,213,-1,-1,-1,-1,-1,215,-1,-1,217,219,-1,221,-1,-1,-1,-1,-1,-1,-1,-1,-1,-1,-1,-1,-1,-1,-1,-1,-1,-1,-1,-1,-1,-1,-1,-1,-1,-1],"loss_changes":[1.4113713E1,3.8654447E0,4.0056543E0,1.5350952E0,3.3271003E0,1.6647472E0,4.3938684E0,4.805503E-1,2.8957748E-1,3.9409785E0,1.797904E0,7.074313E-1,1.7187152E0,1.1161345E1,2.773128E0,0E0,0E0,1.3922064E0,2.461968E0,2.4943244E0,4.0124416E-1,0E0,2.535026E0,0E0,7.844589E-1,7.3564677E0,1.0570612E0,2.889065E0,2.0126114E0,5.79361E0,1.6497698E0,1.7468628E0,0E0,1.7305404E0,3.3003764E0,0E0,8.081733E-1,1.2425327E-1,1.0546134E0,0E0,2.0241742E-1,0E0,5.578816E-2,0E0,1.0305538E0,6.612885E-1,3.2275915E-1,1.6193743E0,0E0,1.3116294E0,2.39919E0,2.4942412E0,8.575935E0,2.5130527E0,1.281168E0,1.2491977E0,0E0,1.2173879E-1,0E0,1.2366657E0,1.4830035E0,0E0,8.267188E-1,1.6618347E-1,1.9142442E0,2.7627325E-1,9.551348E-2,0E0,0E0,0E0,4.982748E-1,1.6677544E-1,0E0,9.140173E-1,4.1584718E-1,4.690136E-2,0E0,3.0649676E0,9.811902E-1,5.081916E-2,0E0,0E0,1.5592394E0,1.142389E0,1.3413632E0,0E0,0E0,0E0,1.3625481E0,8.226061E-2,1.9039745E0,4.405887E-1,2.8248614E-1,0E0,0E0,1.2581077E0,0E0,0E0,0E0,0E0,1.4210796E-1,0E0,0E0,0E0,0E0,0E0,6.398702E-2,0E0,0E0,0E0,0E0,0E0,0E0,0E0,5.9444517E-1,4.371803E-1,0E0,0E0,0E0,1.5632913E0,1.864959E-1,0E0,9.440565E-1,0E0,0E0,2.274671E0,6.7477417E-1,0E0,0E0,0E0,0E0,0E0,1.1622154E0,0E0,4.019116E0,4.1826105E-1,8.248997E-2,9.6813464E-1,3.2351506E-1,0E0,0E0,0E0,0E0,0E0,0E0,3.635763E-1,0E0,0E0,1.2525564E-1,5.278011E-1,0E0,1.2785304E0,0E0,0E0,0E0,2.392074E0,5.2599E-1,0E0,2.33516E-1,3.205719E-1,1.1764817E0,0E0,0E0,0E0,3.2897282E-1,1.4657902E0,6.4642763E-1,3.1830505E-1,2.4678928E-1,0E0,3.862372E-1,0E0,0E0,2.4121086E-1,0E0,0E0,0E0,0E0,0E0,0E0,1.2109561E0,9.768965E-1,1.4749044E0,1.2171936E-1,4.3846604E-1,0E0,0E0,0E0,0E0,0E0,8.794451E-2,0E0,0E0,7.069416E-1,1.4740664E-1,0E0,1.2682167E-1,0E0,0E0,0E0,0E0,0E0,0E0,0E0,0E0,0E0,0E0,0E0,0E0,0E0,0E0,0E0,0E0,0E0,0E0,0E0,0E0,0E0,0E0,0E0,0E0,0E0,0E0],"parents":[2147483647,0,0,1,1,2,2,3,3,4,4,5,5,6,6,7,7,8,8,9,9,10,10,11,11,12,12,13,13,14,14,17,17,18,18,19,19,20,20,22,22,24,24,25,25,26,26,27,27,28,28,29,29,30,30,31,31,33,33,34,34,36,36,37,37,38,38,40,40,42,42,44,44,45,45,46,46,47,47,49,49,50,50,51,51,52,52,53,53,54,54,55,55,57,57,59,59,60,60,62,62,63,63,64,64,65,65,66,66,70,70,71,71,73,73,74,74,75,75,77,77,78,78,79,79,82,82,83,83,84,84,88,88,89,89,90,90,91,91,92,92,95,95,100,100,106,106,114,114,115,115,119,119,120,120,122,122,125,125,126,126,132,132,134,134,135,135,136,136,137,137,138,138,145,145,148,148,149,149,151,151,155,155,156,156,158,158,159,159,160,160,164,164,165,165,166,166,167,167,168,168,170,170,173,173,180,180,181,181,182,182,183,183,184,184,190,190,193,193,194,194,196,196],"right_children":[2,4,6,8,10,12,14,16,18,20,22,24,26,28,30,-1,-1,32,34,36,38,-1,40,-1,42,44,46,48,50,52,54,56,-1,58,60,-1,62,64,66,-1,68,-1,70,-1,72,74,76,78,-1,80,82,84,86,88,90,92,-1,94,-1,96,98,-1,100,102,104,106,108,-1,-1,-1,110,112,-1,114,116,118,-1,120,122,124,-1,-1,126,128,130,-1,-1,-1,132,134,136,138,140,-1,-1,142,-1,-1,-1,-1,144,-1,-1,-1,-1,-1,146,-1,-1,-1,-1,-1,-1,-1,148,150,-1,-1,-1,152,154,-1,156,-1,-1,158,160,-1,-1,-1,-1,-1,162,-1,164,166,168,170,172,-1,-1,-1,-1,-1,-1,174,-1,-1,176,178,-1,180,-1,-1,-1,182,184,-1,186,188,190,-1,-1,-1,192,194,196,198,200,-1,202,-1,-1,204,-1,-1,-1,-1,-1,-1,206,208,210,212,214,-1,-1,-1,-1,-1,216,-1,-1,218,220,-1,222,-1,-1,-1,-1,-1,-1,-1,-1,-1,-1,-1,-1,-1,-1,-1,-1,-1,-1,-1,-1,-1,-1,-1,-1,-1,-1],"split_conditions":[6.049959E-1,5.490633E-1,-1.0629243E0,-1.9499879E-1,1.1914867E0,-9.324218E-2,6.9066644E-1,-6.0241526E-1,-8.097727E-1,-6.0241526E-1,-1.0629243E0,-1.9499879E-1,5.490633E-1,-9.948748E-1,-1.1299765E0,-1.9636195E-2,-6.6897986E-3,1.3061824E0,-9.324218E-2,-1.9499879E-1,-8.097727E-1,2.206504E-2,-8.097727E-1,1.6786866E-2,5.490633E-1,4.6201564E-2,1.3061824E0,8.7022287E-1,-1.9694964E0,1.3061824E0,-1.9499879E-1,4.6201564E-2,-1.6393308E-2,1.3061824E0,1.3061824E0,2.2963813E-2,-8.097727E-1,-9.948748E-1,1.2881938E-1,2.0249069E-2,1.2881938E-1,1.8813312E-2,1.3061824E0,1.6772605E-2,1.3061824E0,1.1914867E0,1.028998E0,4.6201564E-2,-1.864779E-2,1.1914867E0,-1.9193913E0,8.7022287E-1,4.6201564E-2,-9.324218E-2,-9.324218E-2,1.1914867E0,8.238027E-3,1.2881938E-1,-1.3586906E-2,4.6201564E-2,8.7022287E-1,-9.35098E-3,4.6201564E-2,-9.324218E-2,1.2881938E-1,-1.9499879E-1,-9.324218E-2,2.706067E-4,-6.208516E-3,2.8961387E-3,1.2881938E-1,-1.9499879E-1,-2.5899496E-2,-1.9499879E-1,-1.9499879E-1,4.6201564E-2,1.0618159E-2,1.1914867E0,-1.9694964E0,1.2881938E-1,-9.532284E-3,5.0579933E-3,-9.324218E-2,-1.9499879E-1,-9.324218E-2,3.1828326E-3,-3.2372203E-2,-9.272581E-3,8.7022287E-1,8.7022287E-1,1.028998E0,1.2881938E-1,-9.948748E-1,7.979285E-3,2.0545623E-3,5.562331E-1,-2.4451561E-2,1.0203859E-2,-9.063448E-3,-5.275349E-3,-9.948748E-1,-1.2241659E-2,-4.187427E-3,1.1001216E-2,-1.0681482E-2,-1.2619304E-2,2.5318056E-1,2.1499575E-3,-1.637898E-3,1.01995645E-2,-6.5485394E-4,-1.3311642E-4,-9.014308E-3,5.620551E-3,4.6201564E-2,1.2881938E-1,9.014993E-3,4.8692073E-3,5.769235E-4,9.11233E-1,-6.0241526E-1,-5.3374427E-3,2.5318056E-1,1.1034001E-2,2.8612071E-3,-1.9499879E-1,1.1914867E0,2.854909E-3,-1.847222E-2,-1.4807658E-3,1.3746437E-2,-9.48096E-3,1.1914867E0,1.69251E-2,4.6201564E-2,8.7022287E-1,1.1914867E0,-9.324218E-2,-9.324218E-2,7.806404E-3,-4.6752254E-4,-1.379497E-2,4.4944725E-4,2.5465088E-3,1.2902076E-2,1.028998E0,-5.9006927E-3,5.3574922E-3,1.2881938E-1,1.028998E0,6.9299275E-3,-6.0241526E-1,-6.6114496E-3,-1.7344683E-3,-1.0467789E-2,1.1914867E0,1.3061824E0,-1.5839426E-2,1.3061824E0,1.028998E0,-1.9499879E-1,1.2254402E-2,-3.2413076E-3,-1.2806603E-2,1.3061824E0,1.3061824E0,4.6201564E-2,1.3061824E0,1.3061824E0,-1.17310705E-2,2.5318056E-1,-4.8450305E-4,-9.338219E-3,4.6201564E-2,-9.631925E-3,-7.6543503E-3,-1.6736548E-3,3.2161889E-3,-9.747047E-3,1.8943194E-2,2.5318056E-1,-9.324218E-2,-1.9499879E-1,-9.324218E-2,-6.0241526E-1,-4.7263125E-4,7.789629E-3,-2.6845593E-2,-1.1452945E-2,3.1223616E-3,1.2881938E-1,8.294222E-3,1.889452E-2,4.6201564E-2,1.1914867E0,1.5374814E-2,1.3061824E0,-1.4632016E-4,3.8052958E-3,6.109751E-3,2.1136897E-3,-6.193426E-3,2.563566E-3,-3.6945844E-3,3.4926161E-3,-9.587635E-3,7.4015013E-3,7.557136E-4,1.8008212E-2,-1.1928533E-2,3.997345E-3,5.2808295E-3,1.6678613E-2,1.0748165E-2,-9.931922E-4,-2.1616459E-2,-1.0884563E-2,5.481749E-3,1.5911438E-2,-3.5836245E-4,-9.415901E-3,-4.6811407E-4,6.427768E-3],"split_indices":[7,12,4,2,6,6,5,3,7,3,4,2,12,5,12,0,0,2,6,2,7,0,7,0,12,0,2,3,12,2,2,0,0,2,2,0,7,5,5,0,5,0,2,0,2,6,0,0,0,6,0,3,0,6,6,6,0,5,0,0,3,0,0,6,5,2,6,0,0,0,5,2,0,2,2,0,0,6,12,5,0,0,6,2,6,0,0,0,3,3,0,5,5,0,0,8,0,0,0,0,5,0,0,0,0,0,4,0,0,0,0,0,0,0,0,5,0,0,0,4,3,0,4,0,0,2,6,0,0,0,0,0,6,0,0,3,6,6,6,0,0,0,0,0,0,0,0,0,5,0,0,3,0,0,0,6,2,0,2,0,2,0,0,0,2,2,0,2,2,0,4,0,0,0,0,0,0,0,0,0,4,6,2,6,3,0,0,0,0,0,5,0,0,0,6,0,2,0,0,0,0,0,0,0,0,0,0,0,0,0,0,0,0,0,0,0,0,0,0,0,0,0,0],"split_type":[0,0,0,0,0,0,0,0,0,0,0,0,0,0,0,0,0,0,0,0,0,0,0,0,0,0,0,0,0,0,0,0,0,0,0,0,0,0,0,0,0,0,0,0,0,0,0,0,0,0,0,0,0,0,0,0,0,0,0,0,0,0,0,0,0,0,0,0,0,0,0,0,0,0,0,0,0,0,0,0,0,0,0,0,0,0,0,0,0,0,0,0,0,0,0,0,0,0,0,0,0,0,0,0,0,0,0,0,0,0,0,0,0,0,0,0,0,0,0,0,0,0,0,0,0,0,0,0,0,0,0,0,0,0,0,0,0,0,0,0,0,0,0,0,0,0,0,0,0,0,0,0,0,0,0,0,0,0,0,0,0,0,0,0,0,0,0,0,0,0,0,0,0,0,0,0,0,0,0,0,0,0,0,0,0,0,0,0,0,0,0,0,0,0,0,0,0,0,0,0,0,0,0,0,0,0,0,0,0,0,0,0,0,0,0,0,0,0,0,0,0,0,0],"sum_hessian":[4.5579596E2,1.4186443E2,3.1393155E2,7.675391E1,6.511053E1,8.542509E1,2.2850645E2,7.8981357E0,6.8855774E1,5.464544E1,1.0465083E1,2.0638147E1,6.4786934E1,8.404603E1,1.4446043E2,4.5496416E0,3.348494E0,3.8271477E1,3.0584295E1,8.081049E0,4.6564392E1,2.1274462E0,8.337637E0,7.35771E0,1.3280437E1,8.838007E0,5.594893E1,5.0378056E1,3.3667973E1,2.3130157E1,1.2133027E2,3.538826E1,2.8832195E0,8.317396E0,2.22669E1,2.3726418E0,5.708408E0,1.3404811E1,3.315958E1,1.6559362E0,6.681701E0,1.4105835E0,1.1869854E1,3.56283E0,5.2751775E0,3.203932E1,2.3909607E1,4.9187057E1,1.190998E0,4.521002E0,2.9146973E1,1.3569294E1,9.5608635E0,1.6660831E1,1.0466944E2,3.1812735E1,3.5755234E0,6.8882947E0,1.429102E0,1.749282E1,4.7740774E0,1.194503E0,4.5139046E0,7.6664586E0,5.738353E0,2.1742403E1,1.1417177E1,4.2925453E0,2.3891559E0,5.4639125E0,6.4059415E0,3.352288E0,1.9228895E0,1.6387487E1,1.56518345E1,4.2552605E0,1.9654346E1,2.1195581E1,2.7991474E1,2.855922E0,1.6650798E0,2.3680966E0,2.6778875E1,2.6231678E0,1.0946126E1,5.4845085E0,4.0763555E0,6.904252E0,9.75658E0,1.378225E1,9.088719E1,2.6328848E1,5.483887E0,3.5613246E0,3.32697E0,1.3415136E1,4.077685E0,3.0969255E0,1.6771519E0,1.4313657E0,3.082539E0,4.559184E0,3.107274E0,1.4261577E0,4.312195E0,1.9122124E0,1.983019E1,8.561567E0,2.8556104E0,4.0295672E0,2.376374E0,1.1969594E0,2.1553285E0,7.5983953E0,8.789092E0,5.9338536E0,9.717981E0,2.3602853E0,1.8949754E0,1.3788074E1,7.4075084E0,1.4296756E0,2.65618E1,1.427017E0,1.428905E0,7.6394324E0,1.9139442E1,1.4288204E0,1.1943474E0,2.8620653E0,8.084061E0,1.1918564E0,8.564724E0,2.3675692E0,1.1414681E1,3.0677452E1,6.0209736E1,1.797509E1,8.353758E0,1.9063159E0,3.5775714E0,1.0317964E1,3.0971725E0,1.420018E0,1.6625211E0,6.666851E0,1.316334E1,1.6614797E0,7.1276126E0,3.325943E0,2.6079106E0,1.141276E1,2.3753135E0,1.673433E0,5.7340755E0,1.3775598E1,1.27862015E1,3.3504915E0,4.288941E0,7.8916845E0,1.1247759E1,6.427743E0,2.1369805E0,1.9069465E0,9.507734E0,1.7613585E1,1.30638685E1,3.1902954E1,2.8306782E1,1.1744131E1,6.230958E0,7.15891E0,1.1948483E0,5.478261E0,1.18859E0,4.2735953E0,2.854017E0,2.1398792E0,1.1860638E0,2.846258E0,8.566502E0,5.919389E0,7.8562093E0,9.004335E0,3.7818654E0,2.383186E0,1.9057547E0,4.5497246E0,3.3419597E0,1.4359136E0,9.811845E0,5.2345405E0,4.2731943E0,1.5228982E1,2.3846018E0,7.8324833E0,5.231385E0,1.4531921E1,1.7371033E1,9.986107E0,1.8320675E1,2.879542E0,3.3514159E0,2.625265E0,2.8529959E0,1.1895661E0,7.3769355E0,1.9006203E0,4.0187683E0,2.8586364E0,4.9975734E0,1.6589901E0,7.3453455E0,1.41814E0,2.3637254E0,1.4335344E0,8.378311E0,1.1902547E1,3.3264349E0,1.1913955E0,1.1932063E0,1.1892263E0,4.0421586E0],"tree_param":{"num_deleted":"0","num_feature":"16","num_nodes":"223","size_leaf_vector":"1"}},{"base_weights":[-1.1863589E-2,-2.5566012E-1,8.816749E-2,-9.0490565E-2,-5.012455E-1,2.4699893E-2,7.265354E-2,-1.641586E-1,3.0361563E-1,-8.078815E-1,-3.911889E-1,2.989163E-1,6.395343E-3,-4.0160885E-1,7.1714325E-3,5.7592773E-1,-1.147343E-1,-1.9822021E-1,-1.1284828E0,-1.8678614E-1,-5.2929413E-1,1.1437853E-1,4.5818764E-1,3.8554442E-1,-3.3136133E-2,-7.1351546E-1,-1.699296E-1,-5.025158E-2,1.8960262E-2,1.706445E-2,3.133837E-1,-1.3017451E-2,3.929063E-3,-1.6485685E-2,5.2026794E-3,-2.7430538E-2,-1.7868739E-3,3.521774E-1,-6.630251E-3,-8.169423E-1,-3.6584714E-1,2.0007506E-1,-2.954831E-1,-6.4814445E-3,5.179836E-1,5.3986037E-1,-8.6220466E-2,-7.87555E-2,2.6579282E-1,-2.7250277E-2,-5.159601E-1,9.77121E-2,-3.8769838E-1,-1.3031701E-2,-1.0571485E-2,6.9257605E-4,8.829392E-3,1.1293693E-2,1.0668889E-3,-5.5937073E-3,-1.8828785E-2,-2.094718E-1,-1.7048938E-2,-6.327463E-3,2.5669467E-1,-1.3920037E-3,-9.092687E-3,-7.7116874E-4,5.3766567E-1,1.7526664E-2,4.643675E-1,1.1334762E-2,-5.753491E-1,-2.879468E-1,-1.5960129E-2,-1.0841018E-1,4.6064523E-1,-1.9090272E-2,-1.3949235E-1,1.2848591E-2,-1.1749375E-1,-1.9217303E-2,-1.3567582E-1,-3.264339E-2,5.8999495E-3,-3.495301E-2,-7.134922E-1,4.0391046E-1,8.8368274E-2,5.497928E-1,2.9418648E-3,1.2121751E-2,3.4345913E-1,-2.1565433E-3,-1.6502151E-2,-9.1550335E-2,-5.394255E-1,3.2715684E-1,-1.2806699E-1,3.0809408E-3,-1.8694437E-1,4.651587E-4,1.3044197E-2,-8.80234E-3,1.7111312E-3,1.955886E-1,-1.2938159E-2,5.8453893E-3,-2.9092717E-1,-9.777462E-2,6.1806697E-2,-9.331565E-3,2.5380558E-1,-2.1032615E-2,-2.32761E-4,2.4697217E-1,1.6825296E-2,2.6974895E-3,-2.9756158E-4,6.052821E-3,5.7958335E-1,-1.8555241E-3,9.984546E-3,-3.7632394E-1,-2.112874E-2,-2.2705665E-2,-2.8735465E-1,-1.0111684E-1,7.064528E-1,-3.1072417E-1,3.3776004E-2,1.5795709E-3,-6.129263E-3,7.1873004E-3,-2.0014946E-3,-8.909898E-3,-3.4698166E-4,5.6064878E-2,-2.3114893E-1,-9.057981E-4,2.854589E-3,1.2816191E-3,8.512986E-3,7.1414836E-2,4.3822232E-1,1.8826889E-2,5.048954E-1,-1.7100776E-2,1.6058127E-3,2.589213E-2,-4.8305783E-3,1.6488634E-1,-6.125882E-1,1.0814518E-2,-1.8462959E-1,2.0172479E-2,8.349229E-3,-2.0304722E-1,-4.108035E-1,-1.2322828E-2,1.2890252E-1,-6.942649E-4,8.76868E-3,-3.0238524E-3,-9.064287E-3,1.0943343E-2,-2.6555532E-3,8.9587615E-4,1.2662028E-2,7.39387E-3,1.5531371E-2,-4.1051544E-3,1.6408336E-3,-9.2878295E-3,1.2547788E-2,-2.329173E-3,-1.7575977E-2,-5.6540244E-3,1.0780195E-2,-9.240505E-3,-3.0625954E-3,-6.8336492E-3,-1.1613864E-2,5.460399E-3,4.8432732E-4],"categories":[],"categories_nodes":[],"categories_segments":[],"categories_sizes":[],"default_left":[0,0,0,0,0,0,0,0,0,0,0,0,0,0,0,0,0,0,0,0,0,0,0,0,0,0,0,0,0,0,0,0,0,0,0,0,0,0,0,0,0,0,0,0,0,0,0,0,0,0,0,0,0,0,0,0,0,0,0,0,0,0,0,0,0,0,0,0,0,0,0,0,0,0,0,0,0,0,0,0,0,0,0,0,0,0,0,0,0,0,0,0,0,0,0,0,0,0,0,0,0,0,0,0,0,0,0,0,0,0,0,0,0,0,0,0,0,0,0,0,0,0,0,0,0,0,0,0,0,0,0,0,0,0,0,0,0,0,0,0,0,0,0,0,0,0,0,0,0,0,0,0,0,0,0,0,0,0,0,0,0,0,0,0,0,0,0,0,0,0,0,0,0,0,0,0,0,0,0,0,0,0,0,0,0],"id":4,"left_children":[1,3,5,7,9,-1,11,13,15,17,19,21,23,25,27,29,31,33,35,37,39,41,43,45,47,49,51,53,-1,-1,55,-1,-1,-1,-1,-1,-1,57,-1,59,61,63,65,-1,67,69,71,73,75,-1,77,79,81,-1,83,-1,-1,-1,-1,-1,-1,85,-1,-1,87,-1,-1,-1,89,-1,91,-1,93,95,97,99,101,-1,103,-1,105,-1,107,109,-1,111,113,115,117,119,-1,-1,121,-1,-1,123,125,127,129,-1,131,-1,-1,-1,-1,133,-1,-1,135,137,139,-1,141,-1,-1,143,-1,-1,-1,-1,145,-1,-1,147,149,-1,151,153,155,157,159,-1,-1,-1,-1,-1,-1,161,163,-1,-1,-1,-1,165,167,-1,169,-1,-1,171,-1,173,175,-1,177,-1,-1,179,181,-1,183,-1,-1,-1,-1,-1,-1,-1,-1,-1,-1,-1,-1,-1,-1,-1,-1,-1,-1,-1,-1,-1,-1,-1,-1],"loss_changes":[1.1222183E1,5.384657E0,5.717107E0,2.4089732E0,1.4931135E0,0E0,4.8416705E0,2.8144002E0,1.5638967E0,2.3603268E0,1.0694904E0,2.0978465E0,3.7737062E0,1.9731221E0,2.2695212E0,3.2449722E-1,1.1318634E0,1.8699654E0,2.0118275E0,1.5390333E0,8.3675194E-1,1.2963129E0,1.9890852E0,1.7771094E0,3.1322422E0,8.4069014E-1,1.0836627E0,9.406345E-1,0E0,0E0,1.9024956E-1,0E0,0E0,0E0,0E0,0E0,0E0,2.4578434E-1,0E0,2.6783943E-1,1.1312513E0,9.505173E-1,2.0184892E-1,0E0,4.211502E-1,5.154705E-2,2.4727547E0,2.6057878E0,2.269218E0,0E0,1.6565201E0,1.1127427E0,1.3277897E0,0E0,2.677312E-1,0E0,0E0,0E0,0E0,0E0,0E0,1.2375555E0,0E0,0E0,6.4189315E-1,0E0,0E0,0E0,8.6675644E-2,0E0,8.08928E-2,0E0,4.176867E-1,2.2136543E0,5.96162E0,2.6029968E-1,1.677793E0,0E0,5.115078E-1,0E0,1.3179309E0,0E0,6.2822956E-1,2.311374E-1,0E0,1.5782586E0,8.5162437E-1,7.7419543E-1,6.94078E-2,7.450676E-2,0E0,0E0,8.217026E-1,0E0,0E0,5.321516E-1,2.6609292E0,6.273632E0,3.4607973E0,0E0,3.1331602E-1,0E0,0E0,0E0,0E0,2.9186076E-1,0E0,0E0,2.6715672E-1,4.6526426E-1,1.4120157E-1,0E0,2.2264409E-1,0E0,0E0,3.6973107E-1,0E0,0E0,0E0,0E0,3.1364822E-1,0E0,0E0,1.2228249E0,2.4100576E-1,0E0,2.3535511E0,1.1079504E0,1.3580465E0,5.085225E-1,3.9610858E0,0E0,0E0,0E0,0E0,0E0,0E0,3.984766E-1,1.4458966E-1,0E0,0E0,0E0,0E0,7.9368424E-1,3.9500642E-1,0E0,6.810894E-1,0E0,0E0,2.708674E-1,0E0,2.3852236E0,1.1022217E0,0E0,1.3863455E0,0E0,0E0,2.9688013E-1,1.2442303E-1,0E0,8.3216995E-1,0E0,0E0,0E0,0E0,0E0,0E0,0E0,0E0,0E0,0E0,0E0,0E0,0E0,0E0,0E0,0E0,0E0,0E0,0E0,0E0,0E0,0E0,0E0,0E0],"parents":[2147483647,0,0,1,1,2,2,3,3,4,4,6,6,7,7,8,8,9,9,10,10,11,11,12,12,13,13,14,14,15,15,16,16,17,17,18,18,19,19,20,20,21,21,22,22,23,23,24,24,25,25,26,26,27,27,30,30,37,37,39,39,40,40,41,41,42,42,44,44,45,45,46,46,47,47,48,48,50,50,51,51,52,52,54,54,61,61,64,64,68,68,70,70,72,72,73,73,74,74,75,75,76,76,78,78,80,80,82,82,83,83,85,85,86,86,87,87,88,88,89,89,92,92,95,95,96,96,97,97,98,98,100,100,105,105,108,108,109,109,110,110,112,112,115,115,120,120,123,123,124,124,126,126,127,127,128,128,129,129,130,130,137,137,138,138,143,143,144,144,146,146,149,149,151,151,152,152,154,154,157,157,158,158,160,160],"right_children":[2,4,6,8,10,-1,12,14,16,18,20,22,24,26,28,30,32,34,36,38,40,42,44,46,48,50,52,54,-1,-1,56,-1,-1,-1,-1,-1,-1,58,-1,60,62,64,66,-1,68,70,72,74,76,-1,78,80,82,-1,84,-1,-1,-1,-1,-1,-1,86,-1,-1,88,-1,-1,-1,90,-1,92,-1,94,96,98,100,102,-1,104,-1,106,-1,108,110,-1,112,114,116,118,120,-1,-1,122,-1,-1,124,126,128,130,-1,132,-1,-1,-1,-1,134,-1,-1,136,138,140,-1,142,-1,-1,144,-1,-1,-1,-1,146,-1,-1,148,150,-1,152,154,156,158,160,-1,-1,-1,-1,-1,-1,162,164,-1,-1,-1,-1,166,168,-1,170,-1,-1,172,-1,174,176,-1,178,-1,-1,180,182,-1,184,-1,-1,-1,-1,-1,-1,-1,-1,-1,-1,-1,-1,-1,-1,-1,-1,-1,-1,-1,-1,-1,-1,-1,-1],"split_conditions":[5.1466495E-1,-4.380545E-1,3.5627154E-1,8.7022287E-1,-6.0241526E-1,2.4699893E-2,-2.588904E-1,1.0302455E0,1.3061824E0,-2.588904E-1,-9.948748E-1,6.9066644E-1,-6.0241526E-1,-9.948748E-1,6.049959E-1,-1.9499879E-1,-2.588904E-1,-1.9499879E-1,-8.097727E-1,-2.588904E-1,-2.588904E-1,1.2881938E-1,6.049959E-1,-9.948748E-1,1.2525135E0,3.5627154E-1,-2.588904E-1,-1.9499879E-1,1.8960262E-2,1.706445E-2,-2.588904E-1,-1.3017451E-2,3.929063E-3,-1.6485685E-2,5.2026794E-3,-2.7430538E-2,-1.7868739E-3,-1.6910235E0,-6.630251E-3,-1.9499879E-1,1.0302455E0,5.562331E-1,1.3061824E0,-6.4814445E-3,-6.0241526E-1,6.049959E-1,-1.9499879E-1,8.7022287E-1,1.0302455E0,-2.7250277E-2,-2.588904E-1,-6.0241526E-1,-6.0241526E-1,-1.3031701E-2,1.3061824E0,6.9257605E-4,8.829392E-3,1.1293693E-2,1.0668889E-3,-5.5937073E-3,-1.8828785E-2,8.7022287E-1,-1.7048938E-2,-6.327463E-3,8.7022287E-1,-1.3920037E-3,-9.092687E-3,-7.7116874E-4,1.1498111E0,1.7526664E-2,1.0302455E0,1.1334762E-2,6.049959E-1,-9.948748E-1,1.2881938E-1,8.7022287E-1,8.7022287E-1,-1.9090272E-2,-8.097727E-1,1.2848591E-2,5.562331E-1,-1.9217303E-2,1.2881938E-1,1.2881938E-1,5.8999495E-3,-1.6910235E0,-1.2048136E-1,1.3061824E0,1.3061824E0,5.562331E-1,2.9418648E-3,1.2121751E-2,-1.9499879E-1,-2.1565433E-3,-1.6502151E-2,-1.9499879E-1,-1.5210417E-1,1.3061824E0,1.0302455E0,3.0809408E-3,-1.9499879E-1,4.651587E-4,1.3044197E-2,-8.80234E-3,1.7111312E-3,-8.097727E-1,-1.2938159E-2,5.8453893E-3,-8.097727E-1,-8.097727E-1,-8.097727E-1,-9.331565E-3,1.2881938E-1,-2.1032615E-2,-2.32761E-4,-9.948748E-1,1.6825296E-2,2.6974895E-3,-2.9756158E-4,6.052821E-3,8.7022287E-1,-1.8555241E-3,9.984546E-3,1.0302455E0,1.3061824E0,-2.2705665E-2,1.0302455E0,6.049959E-1,1.0302455E0,1.3061824E0,6.9066644E-1,1.5795709E-3,-6.129263E-3,7.1873004E-3,-2.0014946E-3,-8.909898E-3,-3.4698166E-4,5.562331E-1,-9.948748E-1,-9.057981E-4,2.854589E-3,1.2816191E-3,8.512986E-3,6.049959E-1,6.049959E-1,1.8826889E-2,1.2525135E0,-1.7100776E-2,1.6058127E-3,6.049959E-1,-4.8305783E-3,1.2881938E-1,1.2881938E-1,1.0814518E-2,1.1498111E0,2.0172479E-2,8.349229E-3,6.9066644E-1,1.1498111E0,-1.2322828E-2,1.3061824E0,-6.942649E-4,8.76868E-3,-3.0238524E-3,-9.064287E-3,1.0943343E-2,-2.6555532E-3,8.9587615E-4,1.2662028E-2,7.39387E-3,1.5531371E-2,-4.1051544E-3,1.6408336E-3,-9.2878295E-3,1.2547788E-2,-2.329173E-3,-1.7575977E-2,-5.6540244E-3,1.0780195E-2,-9.240505E-3,-3.0625954E-3,-6.8336492E-3,-1.1613864E-2,5.460399E-3,4.8432732E-4],"split_indices":[13,13,15,3,3,0,14,14,2,14,5,5,3,5,7,2,14,2,7,14,14,5,7,5,5,15,14,2,0,0,14,0,0,0,0,0,0,15,0,2,14,8,2,0,3,7,2,3,14,0,14,3,3,0,2,0,0,0,0,0,0,3,0,0,3,0,0,0,13,0,14,0,7,5,5,3,3,0,7,0,8,0,5,5,0,15,13,2,2,8,0,0,2,0,0,2,5,2,14,0,2,0,0,0,0,7,0,0,7,7,7,0,5,0,0,5,0,0,0,0,3,0,0,14,2,0,14,7,14,2,5,0,0,0,0,0,0,8,5,0,0,0,0,7,7,0,5,0,0,7,0,5,5,0,13,0,0,5,13,0,2,0,0,0,0,0,0,0,0,0,0,0,0,0,0,0,0,0,0,0,0,0,0,0,0],"split_type":[0,0,0,0,0,0,0,0,0,0,0,0,0,0,0,0,0,0,0,0,0,0,0,0,0,0,0,0,0,0,0,0,0,0,0,0,0,0,0,0,0,0,0,0,0,0,0,0,0,0,0,0,0,0,0,0,0,0,0,0,0,0,0,0,0,0,0,0,0,0,0,0,0,0,0,0,0,0,0,0,0,0,0,0,0,0,0,0,0,0,0,0,0,0,0,0,0,0,0,0,0,0,0,0,0,0,0,0,0,0,0,0,0,0,0,0,0,0,0,0,0,0,0,0,0,0,0,0,0,0,0,0,0,0,0,0,0,0,0,0,0,0,0,0,0,0,0,0,0,0,0,0,0,0,0,0,0,0,0,0,0,0,0,0,0,0,0,0,0,0,0,0,0,0,0,0,0,0,0,0,0,0,0,0,0],"sum_hessian":[4.5824207E2,1.3286548E2,3.253766E2,8.025684E1,5.2608635E1,3.2936933E0,3.2208292E2,6.810907E1,1.2147776E1,1.2220289E1,4.0388344E1,7.2158844E1,2.4992406E2,2.7982882E1,4.0126186E1,7.130033E0,5.017743E0,4.769258E0,7.4510307E0,1.7233856E1,2.3154488E1,3.422389E1,3.7934956E1,2.2771189E1,2.2715288E2,1.1040053E1,1.694283E1,3.871015E1,1.4160337E0,2.3734293E0,4.7566037E0,1.4419172E0,3.575826E0,1.6783924E0,3.0908656E0,5.7794156E0,1.6716152E0,3.344708E0,1.3889148E1,6.940965E0,1.6213524E1,2.8728907E1,5.4949794E0,2.379985E0,3.555497E1,1.7049799E1,5.72139E0,1.9771608E2,2.9436792E1,1.200235E0,9.839818E0,7.8483596E0,9.094469E0,1.4416506E0,3.72685E1,1.8974708E0,2.859133E0,1.4347732E0,1.9099346E0,1.9165909E0,5.024374E0,1.3352879E1,2.860645E0,2.3851733E0,2.6343735E1,2.8654191E0,2.6295602E0,1.1816926E0,3.437328E1,1.1804314E0,1.5869368E1,2.3823802E0,3.3390095E0,4.4820225E1,1.5289586E2,1.0231467E1,1.9205324E1,3.835885E0,6.003933E0,1.6604162E0,6.187943E0,1.9185524E0,7.1759167E0,3.559087E1,1.6776333E0,1.0712861E1,2.6400168E0,1.33064995E1,1.3037234E1,3.2942757E1,1.4305207E0,5.4585104E0,1.0410857E1,1.6611798E0,1.6778297E0,2.5932138E1,1.8888086E1,3.7180885E1,1.1571497E2,2.1349719E0,8.096496E0,6.191067E0,1.3014257E1,2.161247E0,3.8426862E0,4.284659E0,1.9032841E0,1.6753399E0,5.5005765E0,2.1044044E1,1.4546825E1,4.047302E0,6.6655593E0,1.4453276E0,1.1946892E0,1.0944073E1,2.3624265E0,8.777271E0,4.259964E0,4.7439995E0,2.8198757E1,2.845713E0,7.565144E0,4.280126E0,2.1652012E1,4.5734076E0,1.4314679E1,1.7807428E1,1.9373457E1,5.392966E1,6.1785313E1,2.6157615E0,5.480734E0,2.6186564E0,1.6660026E0,3.113239E0,2.3873377E0,1.0041454E1,1.100259E1,6.4504104E0,8.0964155E0,3.8204648E0,2.8450947E0,6.422226E0,4.521847E0,2.839854E0,2.5358904E1,1.6635246E0,2.6166012E0,1.857227E1,3.079744E0,6.1943655E0,8.120314E0,1.4199023E0,1.6387526E1,8.253448E0,1.1120008E1,2.743778E1,2.6491879E1,7.189384E0,5.459593E1,8.849671E0,1.1917824E0,9.325663E0,1.6769267E0,1.4242268E0,4.997999E0,1.9052725E0,2.616574E0,1.8508635E1,6.8502693E0,3.1107492E0,1.5461519E1,2.6223435E0,3.572022E0,3.3375945E0,4.7827187E0,1.4968275E1,1.4192502E0,3.099806E0,2.4337975E1,2.0970901E1,5.5209785E0,2.2295113E1,3.2300816E1],"tree_param":{"num_deleted":"0","num_feature":"16","num_nodes":"185","size_leaf_vector":"1"}},{"base_weights":[5.2701994E-3,-2.742434E-1,1.2136939E-1,-2.3749045E-1,-5.6330097E-1,4.123478E-1,2.7910858E-2,-2.794903E-1,2.1539392E-1,-1.343896E-1,-2.3868646E-2,3.7359947E-1,2.011209E-2,2.4518069E-2,6.9851875E-3,-1.1018205E-2,-2.4605772E-1,1.12817865E-2,-9.034074E-2,1.42067E-1,-3.5291204E-1,2.4826139E-1,5.4541224E-1,4.460154E-1,-5.0145313E-2,-3.325511E-1,-1.6202575E-1,1.1317739E-2,-3.759135E-1,-4.6627554E-3,7.1313027E-3,2.5625718E-3,-1.077199E-2,4.227204E-1,1.23676434E-1,5.9655863E-1,-1.2023232E-3,4.8448998E-1,-2.1862313E-3,-3.6940566E-1,9.490311E-2,-4.526871E-1,-8.809995E-2,-6.022463E-2,-3.0333033E-1,2.8734156E-3,-1.5441922E-2,1.8205123E-1,4.8099864E-1,3.3311522E-1,4.7061402E-2,7.087878E-1,5.8172513E-3,1.55623695E-2,3.905907E-1,-1.7510371E-1,-5.749508E-1,1.5748131E-1,-2.4120863E-1,-4.6346796E-4,-4.6806487E-1,-1.9513756E-1,6.568762E-2,-1.2983792E-2,3.5571873E-2,2.0940186E-1,-4.3760252E-1,5.066634E-3,-6.9278135E-4,1.7578635E-2,7.593822E-3,9.507928E-3,-1.9619835E-3,-7.510834E-2,4.5721075E-3,6.5963105E-3,1.4902188E-2,1.5272959E-1,4.720855E-1,2.0909503E-1,-3.725378E-1,-1.0108112E0,-3.1582904E-1,2.5751927E-1,1.0773626E-1,1.7209427E-2,-4.0127304E-1,-8.126167E-3,-2.0793514E-2,-8.604922E-3,4.1179527E-3,1.4814047E-2,-5.4195384E-3,3.2428378E-1,-3.4929156E-2,7.013408E-1,-1.3087679E-2,-5.8534044E-1,-3.3463368E-1,-5.6150467E-3,-5.775348E-4,-3.9089047E-3,3.955699E-1,5.841099E-1,-6.7171386E-5,-9.254081E-3,3.8315815E-1,-2.6074385E-2,-1.111726E-1,-2.1763057E-2,-5.29268E-3,1.9927645E-1,-4.5119086E-1,1.6961044E-1,4.6975705E-1,1.4211017E-1,1.0030231E-1,-1.4020488E-1,-7.6151145E-1,-3.0656826E-1,1.72227E-2,8.8419E-3,-7.900228E-2,5.770218E-3,1.7709278E-2,-1.4409156E-2,-3.7298302E-4,-1.9435436E-1,-4.6427503E-1,9.237721E-3,2.9519622E-3,7.1062046E-1,-5.2332855E-3,-3.3048226E-4,8.674055E-3,-6.199816E-3,-6.051566E-2,1.2865122E-2,-1.8136743E-1,-6.0599124E-1,1.3068663E-2,-1.326112E-2,2.0897119E-1,-9.315716E-3,6.206839E-1,-1.13301E-2,1.0978068E-2,4.1041197E-3,-3.9692706E-4,-8.0149114E-1,2.932434E-3,-1.8451476E-3,-2.8665138E-2,8.860646E-3,-1.830771E-2,-2.437877E-3,-7.229482E-4,-8.873684E-3,3.6686405E-3,2.7750677E-3,-1.365429E-2,1.6048891E-2,4.9162465E-3,-1.816533E-3,7.654886E-4,-4.943987E-3,-5.0224015E-4,-1.919921E-2,-5.3685163E-3,-7.9288817E-4,6.569015E-4,-1.5336297E-3,4.9620913E-3,7.471121E-3,1.460379E-2,-4.5836525E-4,-2.1757595E-2],"categories":[],"categories_nodes":[],"categories_segments":[],"categories_sizes":[],"default_left":[0,0,0,0,0,0,0,0,0,0,0,0,0,0,0,0,0,0,0,0,0,0,0,0,0,0,0,0,0,0,0,0,0,0,0,0,0,0,0,0,0,0,0,0,0,0,0,0,0,0,0,0,0,0,0,0,0,0,0,0,0,0,0,0,0,0,0,0,0,0,0,0,0,0,0,0,0,0,0,0,0,0,0,0,0,0,0,0,0,0,0,0,0,0,0,0,0,0,0,0,0,0,0,0,0,0,0,0,0,0,0,0,0,0,0,0,0,0,0,0,0,0,0,0,0,0,0,0,0,0,0,0,0,0,0,0,0,0,0,0,0,0,0,0,0,0,0,0,0,0,0,0,0,0,0,0,0,0,0,0,0,0,0,0,0,0,0,0,0,0,0,0,0,0,0,0,0],"id":5,"left_children":[1,3,5,7,9,11,13,15,17,19,-1,21,-1,-1,23,-1,25,-1,27,29,31,33,35,37,39,41,43,-1,45,-1,-1,-1,-1,47,49,51,-1,53,-1,55,57,59,61,63,65,-1,-1,67,69,71,73,75,-1,-1,77,79,81,83,85,-1,87,89,91,-1,93,95,97,-1,-1,-1,-1,-1,-1,99,-1,-1,-1,101,103,105,107,109,111,113,115,-1,117,-1,-1,-1,-1,-1,-1,119,121,123,-1,125,127,-1,-1,-1,129,131,-1,-1,133,-1,135,-1,-1,137,139,141,143,145,147,149,151,153,-1,-1,155,-1,-1,-1,-1,157,159,-1,-1,161,-1,-1,-1,-1,163,-1,165,167,-1,169,171,-1,173,-1,-1,-1,-1,175,-1,-1,-1,-1,-1,-1,-1,-1,-1,-1,-1,-1,-1,-1,-1,-1,-1,-1,-1,-1,-1,-1,-1,-1,-1,-1,-1],"loss_changes":[1.5084757E1,1.3155279E0,8.919016E0,2.3952584E0,3.8018064E0,1.4578505E0,6.2494493E0,8.8782597E-1,1.2218707E0,6.4517474E-1,0E0,1.511199E0,0E0,0E0,6.201413E0,0E0,6.890545E-1,0E0,1.4709537E0,4.9047357E-1,5.8603674E-1,9.485357E-1,1.0088501E0,6.6119576E-1,1.0171286E1,1.4114771E0,7.5559294E-1,0E0,1.1976345E0,0E0,0E0,0E0,0E0,1.7569494E-1,4.3805274E-1,7.908697E-1,0E0,4.3518496E-1,0E0,2.6384068E0,3.2203717E0,2.0641851E-1,3.013212E-1,1.8577173E0,1.6254952E0,0E0,0E0,9.0144455E-2,2.5089645E-1,5.011994E-1,5.021759E-1,3.7273407E-2,0E0,0E0,3.6055064E-1,2.8612804E0,3.3953447E0,6.100261E-1,4.6027203E0,0E0,6.9678926E-1,1.0866833E0,2.0052543E0,0E0,5.9989405E-1,2.7110891E0,7.76391E-2,0E0,0E0,0E0,0E0,0E0,0E0,1.2332105E-1,0E0,0E0,0E0,6.838676E-1,8.6190224E-1,1.7087001E0,5.8416367E0,3.9350605E-1,1.6295445E0,7.0103526E-1,8.057952E-3,0E0,1.9399273E0,0E0,0E0,0E0,0E0,0E0,0E0,2.2189617E0,5.4251665E-1,3.7903786E-2,0E0,4.497919E-1,1.4490962E-1,0E0,0E0,0E0,6.762624E-3,1.5847011E0,0E0,0E0,2.2834134E-1,0E0,1.8569288E-1,0E0,0E0,1.0104542E0,3.4384341E0,2.2701406E-1,1.9397862E0,4.0948114E0,9.517503E-1,2.7433205E0,3.8773727E0,1.953244E0,0E0,0E0,3.7778243E-2,0E0,0E0,0E0,0E0,8.2835937E-1,8.850421E-1,0E0,0E0,2.9958344E-1,0E0,0E0,0E0,0E0,5.5641018E-2,0E0,3.1107344E-2,1.6689968E0,0E0,9.157996E-3,3.062644E-1,0E0,1.1253834E-2,0E0,0E0,0E0,0E0,9.433794E-1,0E0,0E0,0E0,0E0,0E0,0E0,0E0,0E0,0E0,0E0,0E0,0E0,0E0,0E0,0E0,0E0,0E0,0E0,0E0,0E0,0E0,0E0,0E0,0E0,0E0,0E0,0E0],"parents":[2147483647,0,0,1,1,2,2,3,3,4,4,5,5,6,6,7,7,8,8,9,9,11,11,14,14,16,16,18,18,19,19,20,20,21,21,22,22,23,23,24,24,25,25,26,26,28,28,33,33,34,34,35,35,37,37,39,39,40,40,41,41,42,42,43,43,44,44,47,47,48,48,49,49,50,50,51,51,54,54,55,55,56,56,57,57,58,58,60,60,61,61,62,62,64,64,65,65,66,66,73,73,77,77,78,78,79,79,80,80,81,81,82,82,83,83,84,84,86,86,93,93,94,94,95,95,97,97,98,98,102,102,103,103,106,106,108,108,111,111,112,112,113,113,114,114,115,115,116,116,117,117,118,118,119,119,122,122,127,127,128,128,131,131,136,136,138,138,139,139,141,141,142,142,144,144,149,149],"right_children":[2,4,6,8,10,12,14,16,18,20,-1,22,-1,-1,24,-1,26,-1,28,30,32,34,36,38,40,42,44,-1,46,-1,-1,-1,-1,48,50,52,-1,54,-1,56,58,60,62,64,66,-1,-1,68,70,72,74,76,-1,-1,78,80,82,84,86,-1,88,90,92,-1,94,96,98,-1,-1,-1,-1,-1,-1,100,-1,-1,-1,102,104,106,108,110,112,114,116,-1,118,-1,-1,-1,-1,-1,-1,120,122,124,-1,126,128,-1,-1,-1,130,132,-1,-1,134,-1,136,-1,-1,138,140,142,144,146,148,150,152,154,-1,-1,156,-1,-1,-1,-1,158,160,-1,-1,162,-1,-1,-1,-1,164,-1,166,168,-1,170,172,-1,174,-1,-1,-1,-1,176,-1,-1,-1,-1,-1,-1,-1,-1,-1,-1,-1,-1,-1,-1,-1,-1,-1,-1,-1,-1,-1,-1,-1,-1,-1,-1,-1],"split_conditions":[-1.2048136E-1,1.3061824E0,-1.0629243E0,8.7022287E-1,-1.3907739E0,1.1498111E0,3.5627154E-1,-1.9499879E-1,-1.9499879E-1,8.7022287E-1,-2.3868646E-2,1.3061824E0,2.011209E-2,2.4518069E-2,-6.0241526E-1,-1.1018205E-2,-9.948748E-1,1.12817865E-2,3.5627154E-1,-8.097727E-1,4.6201564E-2,-1.9499879E-1,1.3837324E0,1.2881938E-1,6.9066644E-1,-4.380545E-1,-4.380545E-1,1.1317739E-2,1.028998E0,-4.6627554E-3,7.1313027E-3,2.5625718E-3,-1.077199E-2,-1.0510914E-1,4.6201564E-2,1.2881938E-1,-1.2023232E-3,6.049959E-1,-2.1862313E-3,-9.948748E-1,1.1498111E0,2.5318056E-1,-8.097727E-1,-9.9841404E-1,-9.9841404E-1,2.8734156E-3,-1.5441922E-2,4.6201564E-2,1.028998E0,-9.9841404E-1,1.2881938E-1,1.028998E0,5.8172513E-3,1.55623695E-2,-1.9499879E-1,-9.9841404E-1,1.2881938E-1,1.028998E0,-1.9193913E0,-4.6346796E-4,-1.3907739E0,-1.6910235E0,-1.6910235E0,-1.2983792E-2,1.2881938E-1,-6.0241526E-1,2.5318056E-1,5.066634E-3,-6.9278135E-4,1.7578635E-2,7.593822E-3,9.507928E-3,-1.9619835E-3,6.049959E-1,4.5721075E-3,6.5963105E-3,1.4902188E-2,2.5318056E-1,1.9265917E-1,-1.9499879E-1,2.5318056E-1,1.3061824E0,1.028998E0,4.6201564E-2,-9.9841404E-1,1.7209427E-2,1.3061824E0,-8.126167E-3,-2.0793514E-2,-8.604922E-3,4.1179527E-3,1.4814047E-2,-5.4195384E-3,-6.0241526E-1,3.5627154E-1,-1.6910235E0,-1.3087679E-2,-8.097727E-1,-8.097727E-1,-5.6150467E-3,-5.775348E-4,-3.9089047E-3,-9.948748E-1,-9.948748E-1,-6.7171386E-5,-9.254081E-3,4.6201564E-2,-2.6074385E-2,6.049959E-1,-2.1763057E-2,-5.29268E-3,1.3061824E0,1.1498111E0,-9.365949E-1,-1.9499879E-1,1.3061824E0,1.3061824E0,1.9265917E-1,1.028998E0,-8.097727E-1,1.72227E-2,8.8419E-3,-8.097727E-1,5.770218E-3,1.7709278E-2,-1.4409156E-2,-3.7298302E-4,-1.6910235E0,-1.6910235E0,9.237721E-3,2.9519622E-3,1.3061824E0,-5.2332855E-3,-3.3048226E-4,8.674055E-3,-6.199816E-3,4.6201564E-2,1.2865122E-2,-9.9841404E-1,1.3061824E0,1.3068663E-2,1.3061824E0,6.049959E-1,-9.315716E-3,-9.9841404E-1,-1.13301E-2,1.0978068E-2,4.1041197E-3,-3.9692706E-4,-1.9499879E-1,2.932434E-3,-1.8451476E-3,-2.8665138E-2,8.860646E-3,-1.830771E-2,-2.437877E-3,-7.229482E-4,-8.873684E-3,3.6686405E-3,2.7750677E-3,-1.365429E-2,1.6048891E-2,4.9162465E-3,-1.816533E-3,7.654886E-4,-4.943987E-3,-5.0224015E-4,-1.919921E-2,-5.3685163E-3,-7.9288817E-4,6.569015E-4,-1.5336297E-3,4.9620913E-3,7.471121E-3,1.460379E-2,-4.5836525E-4,-2.1757595E-2],"split_indices":[13,2,4,3,13,13,15,2,2,3,0,2,0,0,3,0,5,0,15,7,0,2,1,5,5,13,13,0,0,0,0,0,0,1,0,5,0,7,0,5,13,4,7,1,1,0,0,0,0,1,5,0,0,0,2,1,5,0,0,0,13,15,15,0,5,3,4,0,0,0,0,0,0,7,0,0,0,4,1,2,4,2,0,0,1,0,2,0,0,0,0,0,0,3,15,15,0,7,7,0,0,0,5,5,0,0,0,0,7,0,0,2,13,0,2,2,2,1,0,7,0,0,7,0,0,0,0,15,15,0,0,2,0,0,0,0,0,0,1,2,0,2,7,0,1,0,0,0,0,2,0,0,0,0,0,0,0,0,0,0,0,0,0,0,0,0,0,0,0,0,0,0,0,0,0,0,0],"split_type":[0,0,0,0,0,0,0,0,0,0,0,0,0,0,0,0,0,0,0,0,0,0,0,0,0,0,0,0,0,0,0,0,0,0,0,0,0,0,0,0,0,0,0,0,0,0,0,0,0,0,0,0,0,0,0,0,0,0,0,0,0,0,0,0,0,0,0,0,0,0,0,0,0,0,0,0,0,0,0,0,0,0,0,0,0,0,0,0,0,0,0,0,0,0,0,0,0,0,0,0,0,0,0,0,0,0,0,0,0,0,0,0,0,0,0,0,0,0,0,0,0,0,0,0,0,0,0,0,0,0,0,0,0,0,0,0,0,0,0,0,0,0,0,0,0,0,0,0,0,0,0,0,0,0,0,0,0,0,0,0,0,0,0,0,0,0,0,0,0,0,0,0,0,0,0,0,0],"sum_hessian":[4.628172E2,1.3542169E2,3.273955E2,1.21761604E2,1.3660089E1,7.876197E1,2.4863351E2,1.1177831E2,9.983296E0,8.849663E0,4.8104253E0,7.546289E1,3.2990851E0,3.2798305E0,2.4535368E2,1.0561039E1,1.0121727E2,4.269188E0,5.7141085E0,4.0613947E0,4.788268E0,4.5046356E1,3.0416534E1,2.74675E1,2.1788618E2,4.8420765E1,5.279651E1,1.4349955E0,4.2791133E0,1.4456805E0,2.6157143E0,1.4198898E0,3.3683784E0,1.7769838E1,2.7276516E1,2.8061144E1,2.3553896E0,2.5807074E1,1.6604266E0,6.758367E1,1.5030252E2,3.1894365E1,1.6526402E1,3.1516815E1,2.1279692E1,2.1269846E0,2.1521285E0,4.268056E0,1.3501783E1,6.4089017E0,2.0867613E1,1.9561129E1,8.500015E0,4.48754E0,2.1319534E1,3.569401E1,3.1889666E1,1.2715914E2,2.3143372E1,1.1890885E0,3.0705276E1,9.58575E0,6.940651E0,3.600973E0,2.7915844E1,4.3000345E0,1.6979656E1,3.0843575E0,1.1836984E0,1.1822104E0,1.2319572E1,4.741848E0,1.6670539E0,1.2824001E1,8.0436125E0,2.592452E0,1.6968678E1,6.1738496E0,1.5145684E1,1.20962105E1,2.35978E1,1.080836E1,2.1081305E1,4.0844177E1,8.6314964E1,2.3808491E0,2.0762522E1,2.9255356E1,1.4499195E0,5.997091E0,3.588659E0,1.910322E0,5.0303288E0,4.7724147E0,2.3143429E1,2.8595436E0,1.4404911E0,5.049741E0,1.1929915E1,1.4227397E0,1.1401261E1,2.6169457E0,3.556904E0,1.2072579E1,3.0731041E0,2.147942E0,9.948269E0,4.297768E0,1.9300032E1,9.378018E0,1.4303409E0,4.288747E0,1.6792559E1,3.0153685E1,1.0690493E1,1.2126541E1,7.418842E1,1.2843741E1,7.9187803E0,2.3913264E0,2.3810883E0,1.1935992E0,2.194983E1,1.6737367E0,1.185807E0,3.8584273E0,1.1913135E0,6.9302073E0,4.999708E0,2.1257496E0,1.4311544E0,1.064074E1,1.4318389E0,1.1924034E0,8.755865E0,2.8794322E0,1.6420599E1,1.6612101E0,2.6275368E0,1.5124446E1,1.6681122E0,5.4581213E0,2.4695564E1,1.1952689E0,9.495224E0,4.2794037E0,7.8471375E0,3.922902E1,3.4959404E1,3.3427052E0,9.501037E0,4.536473E0,3.3823075E0,1.1937901E0,1.1975362E0,1.0048441E1,1.1901388E1,4.0698037E0,2.8604035E0,1.4264951E0,3.573213E0,8.278833E0,2.3619072E0,1.2626973E1,3.7936258E0,1.4391768E0,1.18836E0,6.4828196E0,8.641626E0,3.5607233E0,1.8973979E0,2.8599532E0,2.1835611E1,4.2700477E0,5.2251763E0,1.189357E0,2.1533484E0],"tree_param":{"num_deleted":"0","num_feature":"16","num_nodes":"177","size_leaf_vector":"1"}},{"base_weights":[1.2330122E-4,-2.569314E-1,9.3211286E-2,4.003832E-1,-2.891373E-1,3.451528E-1,1.3789167E-2,1.414679E-2,1.031362E-1,-9.9666536E-2,-3.8548535E-1,2.5046122E-1,4.8282737E-1,2.7513123E-1,-6.125041E-2,8.787795E-3,-3.2992472E-3,1.8327724E-2,-1.9741428E-1,-4.6561494E-1,-2.2466694E-1,2.1135478E-1,1.5566419E-2,6.776888E-4,6.185787E-1,1.9411156E-1,2.1994628E-2,4.0017936E-1,-1.2746811E-1,-7.3927E-1,-9.35591E-2,-2.4058981E-1,-5.7697284E-1,-2.6687447E-2,-3.341414E-1,2.7565098E-1,3.7218947E-2,1.8419664E-2,1.075755E-2,-5.104583E-2,4.0808997E-1,6.716925E-1,-2.708173E-1,-3.9316761E-1,3.314939E-2,-1.93838E-2,-5.526269E-3,-2.4647434E-1,1.4667663E-2,3.4528342E-1,-3.56734E-1,-1.9023387E-2,-4.5255098E-1,-1.4339183E-1,5.5963756E-3,-6.3449496E-1,2.863529E-2,1.453361E-1,3.0197054E-1,1.273715E-2,-9.222594E-2,2.3445274E-1,-2.689067E-1,5.01323E-1,4.148246E-3,1.9287793E-2,2.729428E-1,-7.0834523E-1,1.1170125E-2,-1.6790396E-1,-8.185891E-1,-5.6240994E-2,1.608656E-1,7.3013E-3,-4.2037645E-1,1.2801924E-1,-2.8063014E-1,1.765895E-2,-5.644292E-3,-5.170862E-1,1.29525E-2,-5.40321E-1,1.315338E-1,-3.1432E-1,4.8542343E-4,-3.2566484E-2,-1.8797195E-1,5.3268457E-3,-9.5407315E-2,-2.1755035E-1,3.660677E-1,7.835782E-3,1.4397046E-1,-4.0268022E-1,1.4589083E-1,-4.6134043E-1,5.3182995E-1,-4.7592404E-1,1.0893633E-1,1.4688072E-2,3.8632283E-1,3.335241E-1,4.6590596E-4,-3.5040686E-1,-2.1061728E-2,-3.014468E-1,4.2085776E-1,-4.6760285E-1,-1.1000124E0,-3.3163735E-1,7.2074373E-4,-7.72841E-2,2.2214317E-1,-9.833339E-3,-4.19319E-3,-8.340432E-3,1.4521153E-2,-8.793149E-3,2.7278748E-3,-6.87867E-2,-1.6095165E-2,-1.7756326E-2,-4.4456106E-1,1.323091E-2,-8.921838E-3,-9.064726E-3,-2.3676467E-3,1.1093621E-2,-4.3611875E-1,3.7330985E-3,-7.078173E-3,8.331861E-3,-1.3975417E-2,-2.0647421E-3,6.1193204E-1,4.895806E-3,1.3313129E-3,-1.7308323E-2,7.113063E-3,1.5466414E-2,-2.20221E-1,-1.9513873E-2,8.668648E-3,1.6735118E-2,-7.5607456E-2,-1.6589682E-1,-5.631136E-1,6.27625E-1,-8.702052E-3,1.401762E-2,2.0716034E-1,1.4128914E-1,1.2514124E-2,-1.3371829E-2,7.491146E-4,-6.558617E-1,-1.0493193E-1,-1.2308451E-1,2.0336892E-2,-1.8237377E-2,-2.0919317E-1,-2.4828904E-3,-2.5994541E-2,-5.289299E-1,-1.11260004E-1,-1.8858463E-1,6.7975946E-2,-2.3074523E-1,7.823662E-3,9.9439155E-3,1.3551387E-1,4.831085E-2,-3.560963E-3,-3.02869E-4,-2.4962681E-3,-5.3503513E-1,-2.7182406E-1,-1.2128909E-2,-3.8069733E-3,1.7513154E-2,2.4159334E-3,-9.208067E-3,-1.655881E-4,-2.0891223E-3,-1.2455866E-4,-4.635555E-3,-3.3471527E-4,-3.3709556E-1,-1.5314357E-2,2.765299E-3,1.7674696E-2,5.6874934E-3,9.791544E-4,5.2667097E-3,-4.447018E-4,-1.9536426E-2,-4.831705E-1,-1.7329703E-1,7.094413E-3,7.290702E-3,-4.788304E-1,8.122142E-3,-4.3603003E-1,-2.1520266E-2,-1.01172216E-1,1.8922776E-2,-5.745346E-1,1.3773843E-2,-8.9873215E-3,1.8308137E-2,-1.0901531E-2,1.4173837E-2,-1.8538145E-2,2.8049994E-1,7.96664E-2,-3.339964E-3,2.7194917E-3,-1.3193465E-2,-7.060005E-3,-3.0198452E-4,-1.5038521E-2,-8.712436E-3,1.24482385E-5,-3.2394244E-3,-1.0905948E-2,-1.9224713E-2,-1.0933393E-3,2.7495064E-3,-1.887301E-2,8.428339E-3,-1.3666332E-2,-4.999775E-3,1.1614811E-3,-6.484369E-4,-1.4475617E-2,-5.186842E-3,3.987707E-3,-3.963417E-3,3.5872385E-3,1.3235753E-2,-4.7032265E-3,-3.0493916E-3,5.770254E-3],"categories":[],"categories_nodes":[],"categories_segments":[],"categories_sizes":[],"default_left":[0,0,0,0,0,0,0,0,0,0,0,0,0,0,0,0,0,0,0,0,0,0,0,0,0,0,0,0,0,0,0,0,0,0,0,0,0,0,0,0,0,0,0,0,0,0,0,0,0,0,0,0,0,0,0,0,0,0,0,0,0,0,0,0,0,0,0,0,0,0,0,0,0,0,0,0,0,0,0,0,0,0,0,0,0,0,0,0,0,0,0,0,0,0,0,0,0,0,0,0,0,0,0,0,0,0,0,0,0,0,0,0,0,0,0,0,0,0,0,0,0,0,0,0,0,0,0,0,0,0,0,0,0,0,0,0,0,0,0,0,0,0,0,0,0,0,0,0,0,0,0,0,0,0,0,0,0,0,0,0,0,0,0,0,0,0,0,0,0,0,0,0,0,0,0,0,0,0,0,0,0,0,0,0,0,0,0,0,0,0,0,0,0,0,0,0,0,0,0,0,0,0,0,0,0,0,0,0,0,0,0,0,0,0,0,0,0,0,0,0,0,0,0,0,0,0,0,0,0,0,0,0,0,0,0,0,0,0,0,0,0,0,0],"id":6,"left_children":[1,3,5,7,9,11,13,-1,15,17,19,21,23,25,27,-1,-1,-1,29,31,33,35,-1,-1,37,39,-1,41,43,45,47,49,51,53,55,57,59,-1,-1,61,63,65,67,69,71,-1,-1,73,75,77,79,-1,81,83,-1,85,87,89,91,-1,93,95,97,99,-1,-1,101,103,-1,105,107,109,111,-1,113,115,117,-1,-1,119,-1,121,123,125,-1,-1,127,-1,129,131,133,-1,135,137,139,141,143,145,147,-1,149,151,-1,153,-1,155,157,159,161,163,165,167,169,-1,-1,171,-1,-1,-1,173,-1,-1,175,-1,-1,-1,-1,-1,177,-1,-1,-1,-1,-1,179,-1,-1,-1,-1,-1,181,-1,-1,-1,183,185,187,189,-1,-1,191,193,-1,-1,-1,195,197,199,-1,-1,201,-1,-1,203,205,207,209,211,-1,-1,213,215,-1,-1,-1,217,219,-1,-1,-1,-1,-1,-1,-1,-1,-1,-1,221,-1,-1,-1,-1,-1,-1,-1,-1,223,225,-1,-1,227,-1,229,-1,231,-1,233,-1,-1,-1,235,237,-1,239,241,-1,-1,-1,-1,-1,-1,-1,-1,-1,-1,-1,-1,-1,-1,-1,-1,-1,-1,-1,-1,-1,-1,-1,-1,-1,-1,-1,-1],"loss_changes":[1.1160285E1,2.740672E0,6.846597E0,4.937384E-1,2.130005E0,9.4841194E-1,5.1426806E0,0E0,4.6247065E-1,4.291664E0,9.0560246E-1,8.8161874E-1,1.9505105E0,3.6941328E0,6.2807055E0,0E0,0E0,0E0,2.101941E0,1.1489563E0,5.9801424E-1,5.333731E-1,0E0,0E0,1.0936642E-1,2.878294E0,0E0,4.887449E0,7.654487E0,3.7728238E-1,5.583598E-1,1.3975316E0,1.136838E0,4.3566883E-1,1.9735138E0,7.720399E-2,1.1647832E0,0E0,0E0,1.6973134E0,4.4227362E-1,1.9164219E0,3.354017E0,6.3349247E0,1.2936286E0,0E0,0E0,1.636827E0,7.245246E-1,1.4659767E0,2.931243E0,0E0,1.463973E0,2.5608802E-1,0E0,4.06968E0,2.9328492E-1,7.092502E-1,3.4726667E-1,0E0,9.8968303E-1,2.7089298E0,1.2539704E0,2.3170328E-1,0E0,0E0,1.3288629E-1,3.4400034E-1,0E0,3.6976342E0,1.7696714E0,1.0502014E0,6.9702244E-1,0E0,6.703901E-2,1.2743361E0,4.591743E-1,0E0,0E0,1.80918E0,0E0,3.9784336E-1,1.6280012E0,6.5148205E-2,0E0,0E0,1.7040652E0,0E0,5.5501276E-1,1.3897175E0,6.7012185E-1,0E0,7.649782E-2,2.3192608E0,1.9760226E0,2.310071E0,1.69431E0,1.7999911E-1,2.0377584E0,0E0,6.9936824E-1,3.2773852E-1,0E0,5.5985016E-1,0E0,2.5500286E0,2.9824724E0,1.1902492E0,2.1957264E0,4.4000018E-1,7.316346E-1,8.290119E-1,8.216568E-1,0E0,0E0,1.3986793E-1,0E0,0E0,0E0,1.8380709E-2,0E0,0E0,1.7766953E-1,0E0,0E0,0E0,0E0,0E0,1.5694892E-1,0E0,0E0,0E0,0E0,0E0,3.6001682E-1,0E0,0E0,0E0,0E0,0E0,2.8851143E-1,0E0,0E0,0E0,7.075615E-3,3.1870052E-2,8.427E-2,3.3035088E-1,0E0,0E0,1.2004998E-1,1.208202E-1,0E0,0E0,0E0,2.6087236E-1,8.590027E-1,1.1286597E0,0E0,0E0,1.4197305E0,0E0,0E0,1.2454944E0,3.8188353E0,3.7560186E0,2.8436868E0,1.4401288E0,0E0,0E0,2.18535E-1,2.307632E-1,0E0,0E0,0E0,5.154109E-2,1.1150897E0,0E0,0E0,0E0,0E0,0E0,0E0,0E0,0E0,0E0,0E0,1.7731458E-1,0E0,0E0,0E0,0E0,0E0,0E0,0E0,0E0,1.22707844E-1,2.0753975E0,0E0,0E0,1.1645634E0,0E0,1.7695225E0,0E0,1.1764594E-1,0E0,4.0302503E-1,0E0,0E0,0E0,2.1295326E0,2.8725877E-1,0E0,1.7041492E0,1.1528978E0,0E0,0E0,0E0,0E0,0E0,0E0,0E0,0E0,0E0,0E0,0E0,0E0,0E0,0E0,0E0,0E0,0E0,0E0,0E0,0E0,0E0,0E0,0E0,0E0,0E0,0E0,0E0,0E0],"parents":[2147483647,0,0,1,1,2,2,3,3,4,4,5,5,6,6,8,8,9,9,10,10,11,11,12,12,13,13,14,14,18,18,19,19,20,20,21,21,24,24,25,25,27,27,28,28,29,29,30,30,31,31,32,32,33,33,34,34,35,35,36,36,39,39,40,40,41,41,42,42,43,43,44,44,47,47,48,48,49,49,50,50,52,52,53,53,55,55,56,56,57,57,58,58,60,60,61,61,62,62,63,63,66,66,67,67,69,69,70,70,71,71,72,72,74,74,75,75,76,76,79,79,81,81,82,82,83,83,86,86,88,88,89,89,90,90,92,92,93,93,94,94,95,95,96,96,97,97,98,98,100,100,101,101,103,103,105,105,106,106,107,107,108,108,109,109,110,110,111,111,112,112,115,115,119,119,122,122,128,128,134,134,140,140,144,144,145,145,146,146,147,147,150,150,151,151,155,155,156,156,157,157,160,160,163,163,164,164,165,165,166,166,167,167,170,170,171,171,175,175,176,176,187,187,196,196,197,197,200,200,202,202,204,204,206,206,210,210,211,211,213,213,214,214],"right_children":[2,4,6,8,10,12,14,-1,16,18,20,22,24,26,28,-1,-1,-1,30,32,34,36,-1,-1,38,40,-1,42,44,46,48,50,52,54,56,58,60,-1,-1,62,64,66,68,70,72,-1,-1,74,76,78,80,-1,82,84,-1,86,88,90,92,-1,94,96,98,100,-1,-1,102,104,-1,106,108,110,112,-1,114,116,118,-1,-1,120,-1,122,124,126,-1,-1,128,-1,130,132,134,-1,136,138,140,142,144,146,148,-1,150,152,-1,154,-1,156,158,160,162,164,166,168,170,-1,-1,172,-1,-1,-1,174,-1,-1,176,-1,-1,-1,-1,-1,178,-1,-1,-1,-1,-1,180,-1,-1,-1,-1,-1,182,-1,-1,-1,184,186,188,190,-1,-1,192,194,-1,-1,-1,196,198,200,-1,-1,202,-1,-1,204,206,208,210,212,-1,-1,214,216,-1,-1,-1,218,220,-1,-1,-1,-1,-1,-1,-1,-1,-1,-1,222,-1,-1,-1,-1,-1,-1,-1,-1,224,226,-1,-1,228,-1,230,-1,232,-1,234,-1,-1,-1,236,238,-1,240,242,-1,-1,-1,-1,-1,-1,-1,-1,-1,-1,-1,-1,-1,-1,-1,-1,-1,-1,-1,-1,-1,-1,-1,-1,-1,-1,-1,-1],"split_conditions":[5.490633E-1,-9.365949E-1,-4.0487182E-1,-1.0629243E0,-9.324218E-2,1.1914867E0,-2.588904E-1,1.414679E-2,1.1914867E0,-1.0629243E0,1.2881938E-1,1.3837324E0,-1.0510914E-1,1.3837324E0,-6.0241526E-1,8.787795E-3,-3.2992472E-3,1.8327724E-2,2.5318056E-1,-1.0510914E-1,8.7022287E-1,1.2881938E-1,1.5566419E-2,6.776888E-4,-2.588904E-1,6.9066644E-1,2.1994628E-2,-9.948748E-1,6.9066644E-1,-9.9841404E-1,-9.948748E-1,4.6201564E-2,-2.588904E-1,5.562331E-1,1.0302455E0,1.028998E0,-1.0510914E-1,1.8419664E-2,1.075755E-2,-1.0510914E-1,1.2525135E0,1.1914867E0,1.9265917E-1,-9.948748E-1,1.1914867E0,-1.93838E-2,-5.526269E-3,-2.588904E-1,4.6201564E-2,1.1914867E0,1.1914867E0,-1.9023387E-2,1.3837324E0,1.0302455E0,5.5963756E-3,1.028998E0,4.6201564E-2,-2.588904E-1,1.0302455E0,1.273715E-2,-9.324218E-2,-9.324218E-2,-1.5210417E-1,-9.324218E-2,4.148246E-3,1.9287793E-2,1.9265917E-1,2.5318056E-1,1.1170125E-2,9.11233E-1,1.0302455E0,-1.0510914E-1,8.7022287E-1,7.3013E-3,1.0302455E0,9.11233E-1,1.0302455E0,1.765895E-2,-5.644292E-3,-2.588904E-1,1.29525E-2,-6.0241526E-1,-6.0241526E-1,1.1914867E0,4.8542343E-4,-3.2566484E-2,7.881958E-1,5.3268457E-3,1.1914867E0,8.7022287E-1,8.7022287E-1,7.835782E-3,-9.324218E-2,1.0302455E0,-2.588904E-1,2.5318056E-1,-9.948748E-1,-9.324218E-2,7.881958E-1,1.4688072E-2,-9.9841404E-1,2.5318056E-1,4.6590596E-4,1.0302455E0,-2.1061728E-2,1.0302455E0,1.1914867E0,-9.324218E-2,-9.324218E-2,1.0302455E0,9.11233E-1,4.6201564E-2,1.028998E0,-9.833339E-3,-4.19319E-3,1.0302455E0,1.4521153E-2,-8.793149E-3,2.7278748E-3,-6.0241526E-1,-1.6095165E-2,-1.7756326E-2,-1.5210417E-1,1.323091E-2,-8.921838E-3,-9.064726E-3,-2.3676467E-3,1.1093621E-2,1.1914867E0,3.7330985E-3,-7.078173E-3,8.331861E-3,-1.3975417E-2,-2.0647421E-3,1.0302455E0,4.895806E-3,1.3313129E-3,-1.7308323E-2,7.113063E-3,1.5466414E-2,1.0302455E0,-1.9513873E-2,8.668648E-3,1.6735118E-2,1.1914867E0,5.562331E-1,5.562331E-1,2.5318056E-1,-8.702052E-3,1.401762E-2,1.1914867E0,1.0302455E0,1.2514124E-2,-1.3371829E-2,7.491146E-4,-9.324218E-2,4.6201564E-2,-9.9841404E-1,2.0336892E-2,-1.8237377E-2,-9.9841404E-1,-2.4828904E-3,-2.5994541E-2,4.6201564E-2,4.6201564E-2,1.0302455E0,8.7022287E-1,9.11233E-1,7.823662E-3,9.9439155E-3,7.881958E-1,-2.588904E-1,-3.560963E-3,-3.02869E-4,-2.4962681E-3,1.1914867E0,1.1914867E0,-1.2128909E-2,-3.8069733E-3,1.7513154E-2,2.4159334E-3,-9.208067E-3,-1.655881E-4,-2.0891223E-3,-1.2455866E-4,-4.635555E-3,-3.3471527E-4,1.1914867E0,-1.5314357E-2,2.765299E-3,1.7674696E-2,5.6874934E-3,9.791544E-4,5.2667097E-3,-4.447018E-4,-1.9536426E-2,-9.9841404E-1,2.5318056E-1,7.094413E-3,7.290702E-3,-9.324218E-2,8.122142E-3,-1.9193913E0,-2.1520266E-2,-9.324218E-2,1.8922776E-2,1.028998E0,1.3773843E-2,-8.9873215E-3,1.8308137E-2,1.0302455E0,1.0302455E0,-1.8538145E-2,1.0302455E0,1.0302455E0,-3.339964E-3,2.7194917E-3,-1.3193465E-2,-7.060005E-3,-3.0198452E-4,-1.5038521E-2,-8.712436E-3,1.24482385E-5,-3.2394244E-3,-1.0905948E-2,-1.9224713E-2,-1.0933393E-3,2.7495064E-3,-1.887301E-2,8.428339E-3,-1.3666332E-2,-4.999775E-3,1.1614811E-3,-6.484369E-4,-1.4475617E-2,-5.186842E-3,3.987707E-3,-3.963417E-3,3.5872385E-3,1.3235753E-2,-4.7032265E-3,-3.0493916E-3,5.770254E-3],"split_indices":[12,0,4,4,6,6,14,0,6,4,5,1,1,1,3,0,0,0,4,1,3,5,0,0,14,5,0,5,5,1,5,0,14,8,14,0,1,0,0,1,5,6,1,5,6,0,0,14,0,6,6,0,1,14,0,0,0,14,14,0,6,6,5,6,0,0,1,4,0,4,14,1,3,0,14,4,14,0,0,14,0,3,3,6,0,0,1,0,6,3,3,0,6,14,14,4,5,6,1,0,1,4,0,14,0,14,6,6,6,14,4,0,0,0,0,14,0,0,0,3,0,0,5,0,0,0,0,0,6,0,0,0,0,0,14,0,0,0,0,0,14,0,0,0,6,8,8,4,0,0,6,14,0,0,0,6,0,1,0,0,1,0,0,0,0,14,3,4,0,0,1,14,0,0,0,6,6,0,0,0,0,0,0,0,0,0,0,6,0,0,0,0,0,0,0,0,1,4,0,0,6,0,0,0,6,0,0,0,0,0,14,14,0,14,14,0,0,0,0,0,0,0,0,0,0,0,0,0,0,0,0,0,0,0,0,0,0,0,0,0,0,0,0],"split_type":[0,0,0,0,0,0,0,0,0,0,0,0,0,0,0,0,0,0,0,0,0,0,0,0,0,0,0,0,0,0,0,0,0,0,0,0,0,0,0,0,0,0,0,0,0,0,0,0,0,0,0,0,0,0,0,0,0,0,0,0,0,0,0,0,0,0,0,0,0,0,0,0,0,0,0,0,0,0,0,0,0,0,0,0,0,0,0,0,0,0,0,0,0,0,0,0,0,0,0,0,0,0,0,0,0,0,0,0,0,0,0,0,0,0,0,0,0,0,0,0,0,0,0,0,0,0,0,0,0,0,0,0,0,0,0,0,0,0,0,0,0,0,0,0,0,0,0,0,0,0,0,0,0,0,0,0,0,0,0,0,0,0,0,0,0,0,0,0,0,0,0,0,0,0,0,0,0,0,0,0,0,0,0,0,0,0,0,0,0,0,0,0,0,0,0,0,0,0,0,0,0,0,0,0,0,0,0,0,0,0,0,0,0,0,0,0,0,0,0,0,0,0,0,0,0,0,0,0,0,0,0,0,0,0,0,0,0,0,0,0,0,0,0],"sum_hessian":[4.643965E2,1.2299526E2,3.4140125E2,5.210862E0,1.177844E2,8.102603E1,2.603752E2,1.8848304E0,3.3260317E0,4.0390316E1,7.739409E1,4.9677456E1,3.1348572E1,5.7489334E1,2.028859E2,1.192042E0,2.1339896E0,2.8096807E0,3.7580635E1,5.0390945E1,2.7003143E1,4.7554764E1,2.1226919E0,7.568477E0,2.3780096E1,5.347103E1,4.0183024E0,2.4828459E1,1.7805743E2,5.060359E0,3.2520275E1,1.7727936E1,3.266301E1,1.0057819E1,1.6945324E1,3.4305264E1,1.3249502E1,2.8159292E0,2.0964167E1,2.527483E1,2.8196201E1,1.7675272E1,7.1531873E0,6.653872E1,1.1151871E2,2.650534E0,2.409825E0,1.2948191E1,1.9572084E1,2.60657E0,1.5121366E1,6.492428E0,2.6170582E1,7.6697006E0,2.388119E0,8.8604765E0,8.0848465E0,6.860275E0,2.7444988E1,1.656419E0,1.1593083E1,1.0906331E1,1.4368498E1,1.822902E1,9.967183E0,9.375079E0,8.300193E0,4.778212E0,2.3749752E0,4.4415226E1,2.2123497E1,6.593177E1,4.5586937E1,2.6234355E0,1.0324756E1,1.45525055E1,5.01958E0,1.1845287E0,1.4220413E0,1.3457888E1,1.6634778E0,2.281684E1,3.3537426E0,3.3647306E0,4.30497E0,1.9263381E0,6.9341383E0,2.378899E0,5.705948E0,2.600092E0,4.260183E0,1.655453E1,1.0890457E1,4.732193E0,6.8608904E0,3.1005065E0,7.8058248E0,9.114921E0,5.253577E0,4.243084E0,1.3985934E1,6.408966E0,1.891227E0,3.333517E0,1.4446949E0,3.660132E1,7.8139067E0,1.1029394E1,1.1094103E1,1.047338E1,5.545839E1,9.275877E0,3.631106E1,6.7184434E0,3.6063123E0,1.265343E1,1.8990749E0,3.5945606E0,1.4250191E0,5.7446737E0,7.7132134E0,3.1423929E0,1.9674446E1,1.6731904E0,1.6805522E0,1.2004601E0,2.1642706E0,1.4272811E0,5.506857E0,2.8615348E0,2.8444128E0,1.1797451E0,1.420347E0,1.664018E0,2.596165E0,3.7906566E0,7.099801E0,2.851187E0,1.8810059E0,2.118325E0,4.742565E0,1.9113464E0,1.1891601E0,4.945652E0,2.8601727E0,2.6378849E0,6.477036E0,2.6107955E0,2.6427817E0,4.0185404E0,9.967394E0,4.760477E0,1.648489E0,1.4336404E0,1.8998768E0,1.22218075E1,2.437951E1,4.5001817E0,3.3137248E0,3.1261122E0,7.9032817E0,2.1602182E0,8.933885E0,4.787377E0,5.686003E0,1.4065044E1,4.1393345E1,7.3692837E0,1.9065936E0,7.5619907E0,2.8749071E1,1.0022936E1,2.6304946E0,3.58371E0,2.160964E0,1.15352545E1,8.139192E0,2.3858514E0,3.1210055E0,1.1797483E0,1.4164166E0,1.6736228E0,3.0689423E0,1.6630749E0,1.1970978E0,1.4455454E0,1.1923394E0,4.320762E0,2.1562738E0,1.4259797E0,1.1848156E0,6.1622396E0,3.8051543E0,2.3764427E0,2.3840344E0,2.6465425E0,9.575265E0,2.1765295E1,2.6142159E0,1.8878316E0,2.6123502E0,1.9159411E0,5.9873405E0,1.4357021E0,3.3516748E0,1.4147131E0,4.27129E0,2.8469474E0,1.1218097E1,2.6216686E0,3.877168E1,6.176092E0,1.1931912E0,6.875897E0,2.1873175E1,2.6382356E0,7.3847003E0,5.28961E0,6.2456446E0,5.9754114E0,2.16378E0,3.1204891E0,1.2002732E0,2.1365085E0,7.438756E0,1.9186772E0,1.9846619E1,1.4259374E0,1.1864128E0,1.1826005E0,4.80474E0,1.4380159E0,1.9136589E0,1.184829E0,3.086461E0,1.7666525E1,2.1105152E1,2.6149626E0,3.5611298E0,3.7900789E0,3.085818E0,1.0486835E1,1.1386339E1],"tree_param":{"num_deleted":"0","num_feature":"16","num_nodes":"243","size_leaf_vector":"1"}},{"base_weights":[-2.1876445E-2,-2.5713858E-1,7.757326E-2,-2.9940227E-1,4.4877902E-1,3.1865293E-1,-4.4502853E-3,-2.7874592E-1,-2.340259E-2,6.026054E-1,-1.8137146E-3,2.742357E-1,2.0440264E-2,-1.328085E-1,7.658323E-2,-3.5732022E-1,-6.726891E-2,4.8501045E-3,1.716691E-2,1.4378452E-2,2.329206E-1,1.2273628E-1,-4.7640568E-1,-7.0456195E-1,9.79876E-2,-4.1144472E-1,3.5135526E-2,9.290373E-2,-3.0642065E-1,1.2590241E-1,4.2615363E-1,3.555914E-1,-7.107086E-2,6.8301754E-3,-5.41832E-1,-1.688591E-2,-5.2316794E-3,4.5643348E-1,2.516635E-2,-1.1075001E-1,-4.943635E-1,7.125067E-1,-1.13873845E-2,3.1472421E-3,1.6980326E-1,-1.616173E-2,-1.1387478E-1,2.8665972E-1,-1.2109038E-1,1.5641542E-2,2.5043607E-1,-9.2141135E-3,4.1586515E-1,8.673401E-3,-1.0605088E-1,1.1333695E-1,-6.085965E-1,6.3839525E-1,2.907611E-1,-1.1434606E-1,9.527581E-2,2.2079739E-1,-2.9901108E-1,-5.961919E-1,-2.4504712E-1,-2.9250927E-4,1.7776126E-2,5.5715893E-3,-7.3596895E-2,5.819257E-3,1.2178349E-1,7.4751526E-2,-5.9926504E-1,3.413072E-1,-6.853337E-3,1.5443825E-2,-6.9033867E-3,-2.5730705E-1,5.218092E-1,2.4031134E-1,5.4922235E-1,-3.7880954E-1,-2.455736E-2,-4.962026E-3,7.5652655E-3,-2.0664886E-1,-7.1118593E-1,1.5946446E-2,7.7836597E-3,-6.5920316E-3,8.153165E-3,-4.350335E-2,-3.1815532E-1,-4.133332E-2,2.031281E-1,1.7663397E-2,-4.565184E-2,-1.1012105E-2,-1.4677137E-1,-7.5168425E-1,-4.6965596E-1,-8.493154E-2,-6.8294927E-3,-6.0702325E-3,4.4623073E-2,-1.4997061E-3,4.153737E-3,2.9704862E-3,-6.97046E-4,-1.6372601E-4,-1.8347327E-2,1.5879035E-1,4.0164506E-1,-6.441887E-4,-5.927589E-3,-1.0178153E-2,1.3469931E-2,2.8396788E-1,3.6892015E-5,4.6864487E-3,1.4689599E-2,3.528743E-3,-1.3564234E-2,-6.1383755E-3,2.8953424E-2,1.9811617E-1,-1.3511802E-2,-1.2685251E-3,-7.517861E-1,-1.5897818E-1,-5.7639537E-4,-1.49979815E-2,-8.054416E-2,6.6242074E-3,-1.300266E-1,-8.552844E-4,2.1744914E-1,7.3370384E-3,-8.883301E-3,-1.1524129E-2,5.223337E-1,-2.8082775E-3,-8.24148E-1,-3.5541156E-1,-1.4210843E-2,-5.30365E-3,4.550275E-4,6.9812415E-3,-6.1524133E-3,9.784535E-3,-2.2878782E-3,3.706771E-3,1.0831694E-2,8.507703E-3,2.7132214E-3,-1.05603054E-1,1.0988546E-1,-1.9294121E-3,7.210583E-3,-8.4111035E-1,-3.4675738E-1,-2.531008E-2,-8.936662E-3,-1.4566527E-1,7.7217795E-2,-2.69572E-3,1.1744603E-3,-1.0477809E-2,-9.09622E-4,5.9212125E-3,3.969451E-3,1.4751614E-2,1.098401E-6,-2.38122E-2,-1.0089469E-2,-5.479045E-3,-1.816509E-2,-6.113195E-4,-5.543318E-3,3.551558E-3,-6.3193205E-4,-2.5631838E-2,-1.3829288E-2,-5.369742E-4,-8.3199255E-3,-4.1011362E-3,3.4600096E-3,-1.35350935E-2,6.933936E-3,9.019539E-3,-5.1424336E-3],"categories":[],"categories_nodes":[],"categories_segments":[],"categories_sizes":[],"default_left":[0,0,0,0,0,0,0,0,0,0,0,0,0,0,0,0,0,0,0,0,0,0,0,0,0,0,0,0,0,0,0,0,0,0,0,0,0,0,0,0,0,0,0,0,0,0,0,0,0,0,0,0,0,0,0,0,0,0,0,0,0,0,0,0,0,0,0,0,0,0,0,0,0,0,0,0,0,0,0,0,0,0,0,0,0,0,0,0,0,0,0,0,0,0,0,0,0,0,0,0,0,0,0,0,0,0,0,0,0,0,0,0,0,0,0,0,0,0,0,0,0,0,0,0,0,0,0,0,0,0,0,0,0,0,0,0,0,0,0,0,0,0,0,0,0,0,0,0,0,0,0,0,0,0,0,0,0,0,0,0,0,0,0,0,0,0,0,0,0,0,0,0,0,0,0,0,0,0,0,0,0,0,0,0,0,0,0,0,0,0,0],"id":7,"left_children":[1,3,5,7,9,11,13,15,-1,17,-1,19,-1,21,23,25,27,-1,-1,-1,29,31,33,35,37,39,41,43,45,47,49,51,53,-1,55,-1,-1,57,59,61,63,65,-1,67,69,-1,71,73,75,-1,77,-1,79,-1,81,83,85,87,89,91,93,95,97,99,101,-1,-1,-1,103,-1,105,107,109,111,-1,-1,-1,113,115,117,119,121,123,-1,-1,125,127,-1,-1,-1,-1,129,131,133,135,-1,137,-1,139,141,143,145,-1,-1,147,-1,-1,-1,-1,-1,-1,149,151,-1,-1,-1,-1,153,-1,-1,-1,-1,-1,-1,155,157,-1,-1,159,161,163,-1,165,-1,167,-1,169,-1,-1,-1,171,-1,173,175,-1,-1,-1,-1,-1,-1,-1,-1,-1,-1,-1,177,179,-1,-1,181,183,185,-1,187,189,-1,-1,-1,-1,-1,-1,-1,-1,-1,-1,-1,-1,-1,-1,-1,-1,-1,-1,-1,-1,-1,-1,-1,-1,-1,-1],"loss_changes":[1.0762425E1,4.211361E0,6.398203E0,2.003624E0,7.2843575E-1,2.28576E0,2.5309868E0,2.1003094E0,0E0,3.857267E-1,0E0,1.2770467E0,0E0,8.325793E0,2.5636406E0,1.98948E0,1.4022844E0,0E0,0E0,0E0,1.4646153E0,2.4979765E0,2.3450499E0,3.301263E-2,3.8020349E0,1.9845228E0,5.3972673E0,1.5301526E-1,1.320015E0,1.9671903E0,1.4145589E0,1.4243441E0,5.88673E-1,0E0,1.7207212E0,0E0,0E0,5.563011E-1,1.2089585E0,1.2499325E0,1.4741783E0,8.0687666E-1,0E0,2.590207E-1,3.4163594E-2,0E0,1.1185642E0,1.1410701E0,4.2480946E0,0E0,2.7122476E0,0E0,4.2656517E-1,0E0,6.4749426E-1,5.0895846E-1,1.2726059E0,1.2110853E-1,1.2017275E0,5.8421475E-1,1.217524E0,1.3542435E0,3.9884377E-1,5.2480793E-1,2.829622E-1,0E0,0E0,0E0,2.7491274E-1,0E0,1.8945333E-1,8.065584E-2,6.304487E-1,2.4347949E-1,0E0,0E0,0E0,5.3660125E-2,2.3007174E0,1.2521029E-1,5.7348275E-1,1.2381439E0,3.687926E-1,0E0,0E0,1.7300668E0,6.6282654E-1,0E0,0E0,0E0,0E0,1.5801406E-1,1.0193943E0,1.2668492E0,1.7138696E-1,0E0,1.1920108E0,0E0,2.934514E0,6.971979E-1,4.9776268E-1,1.7928186E-1,0E0,0E0,8.8188976E-1,0E0,0E0,0E0,0E0,0E0,0E0,8.310001E-1,5.145416E-1,0E0,0E0,0E0,0E0,1.5626031E-1,0E0,0E0,0E0,0E0,0E0,0E0,2.3962706E-1,2.8772894E-1,0E0,0E0,6.247778E-1,3.2113475E-1,2.850213E-1,0E0,6.7664385E-2,0E0,9.962384E-1,0E0,6.3710213E-3,0E0,0E0,0E0,4.6170723E-1,0E0,1.2974148E0,6.74109E-1,0E0,0E0,0E0,0E0,0E0,0E0,0E0,0E0,0E0,0E0,0E0,9.933209E-2,1.3552476E-1,0E0,0E0,4.3560123E-1,1.2789911E-1,2.8357896E-1,0E0,2.5389898E0,2.170713E0,0E0,0E0,0E0,0E0,0E0,0E0,0E0,0E0,0E0,0E0,0E0,0E0,0E0,0E0,0E0,0E0,0E0,0E0,0E0,0E0,0E0,0E0,0E0,0E0,0E0,0E0],"parents":[2147483647,0,0,1,1,2,2,3,3,4,4,5,5,6,6,7,7,9,9,11,11,13,13,14,14,15,15,16,16,20,20,21,21,22,22,23,23,24,24,25,25,26,26,27,27,28,28,29,29,30,30,31,31,32,32,34,34,37,37,38,38,39,39,40,40,41,41,43,43,44,44,46,46,47,47,48,48,50,50,52,52,54,54,55,55,56,56,57,57,58,58,59,59,60,60,61,61,62,62,63,63,64,64,68,68,70,70,71,71,72,72,73,73,77,77,78,78,79,79,80,80,81,81,82,82,85,85,86,86,91,91,92,92,93,93,94,94,96,96,98,98,99,99,100,100,101,101,104,104,111,111,112,112,117,117,124,124,125,125,128,128,129,129,130,130,132,132,134,134,136,136,140,140,142,142,143,143,155,155,156,156,159,159,160,160,161,161,163,163,164,164],"right_children":[2,4,6,8,10,12,14,16,-1,18,-1,20,-1,22,24,26,28,-1,-1,-1,30,32,34,36,38,40,42,44,46,48,50,52,54,-1,56,-1,-1,58,60,62,64,66,-1,68,70,-1,72,74,76,-1,78,-1,80,-1,82,84,86,88,90,92,94,96,98,100,102,-1,-1,-1,104,-1,106,108,110,112,-1,-1,-1,114,116,118,120,122,124,-1,-1,126,128,-1,-1,-1,-1,130,132,134,136,-1,138,-1,140,142,144,146,-1,-1,148,-1,-1,-1,-1,-1,-1,150,152,-1,-1,-1,-1,154,-1,-1,-1,-1,-1,-1,156,158,-1,-1,160,162,164,-1,166,-1,168,-1,170,-1,-1,-1,172,-1,174,176,-1,-1,-1,-1,-1,-1,-1,-1,-1,-1,-1,178,180,-1,-1,182,184,186,-1,188,190,-1,-1,-1,-1,-1,-1,-1,-1,-1,-1,-1,-1,-1,-1,-1,-1,-1,-1,-1,-1,-1,-1,-1,-1,-1,-1],"split_conditions":[-1.2048136E-1,1.3837324E0,-4.0487182E-1,9.11233E-1,1.0302455E0,1.1498111E0,6.9066644E-1,1.2881938E-1,-2.340259E-2,-2.588904E-1,-1.8137146E-3,6.049959E-1,2.0440264E-2,-9.948748E-1,6.049959E-1,6.049959E-1,-1.3907739E0,4.8501045E-3,1.716691E-2,1.4378452E-2,1.2881938E-1,-9.9841404E-1,-1.9193913E0,-2.588904E-1,-2.588904E-1,-2.588904E-1,1.9265917E-1,-8.097727E-1,-2.588904E-1,1.0302455E0,-2.588904E-1,4.6201564E-2,-1.9694964E0,6.8301754E-3,-1.9694964E0,-1.688591E-2,-5.2316794E-3,1.028998E0,7.881958E-1,-9.9841404E-1,5.490633E-1,-2.588904E-1,-1.13873845E-2,-2.588904E-1,5.490633E-1,-1.616173E-2,1.0302455E0,1.3837324E0,4.6201564E-2,1.5641542E-2,1.0302455E0,-9.2141135E-3,1.0302455E0,8.673401E-3,-2.588904E-1,4.6201564E-2,-2.588904E-1,1.2525135E0,-1.0510914E-1,-1.0510914E-1,1.0302455E0,-1.3907739E0,2.5318056E-1,-1.3907739E0,-8.097727E-1,-2.9250927E-4,1.7776126E-2,5.5715893E-3,1.0302455E0,5.819257E-3,1.0302455E0,-8.097727E-1,-8.097727E-1,-9.9841404E-1,-6.853337E-3,1.5443825E-2,-6.9033867E-3,7.881958E-1,-1.0510914E-1,2.5318056E-1,2.5318056E-1,2.5318056E-1,6.049959E-1,-4.962026E-3,7.5652655E-3,1.028998E0,5.1466495E-1,1.5946446E-2,7.7836597E-3,-6.5920316E-3,8.153165E-3,-1.9694964E0,1.0302455E0,